tree
version=v4
num_class=1
num_tree_per_iteration=1
label_index=0
max_feature_idx=16
objective=binary sigmoid:1
feature_names=SeniorCitizen Partner Dependents tenure MultipleLines InternetService OnlineSecurity OnlineBackup DeviceProtection TechSupport StreamingMovies Contract PaperlessBilling PaymentMethod TotalCharges notSecurityBackup notTechSupport
feature_infos=[0:1] [0:1] [0:1] [0:72] -1:0:2:1 -1:1:0:2 -1:0:2:1 -1:0:2:1 -1:0:2:1 -1:0:2:1 -1:0:2:1 -1:0:2:1 [0:1] -1:2:3:0:1 [0:8684.7999999999993] [0:1] [0:1]
tree_sizes=3162 3197 3265 3267 3238 3260 3228 3234 3235 3283 3254 3283 3308 3260 3291 3301 3276 3268 3250 3310 3289 3336 3347 3313 3306 3258 3372 3307 3320 3324 3386 3402 3260 3265 3295 3300 3372 3331 3325 3380 3368 3296 3285 3279 3328 3342 3279 3322 3320 3318 3306 3297 3369 3302 3286 3371 3348 3346 3300 3302 3369 3264 3321 3360 3337 3390 3362 3334 3263 3368 3290 3320 3367 3299 3304 3330 3361 3340 3322 3346 3319 3363 3302 3310 3335 3324 3341 3403 3292 3374 3340 3321 3344 3338 3275 3322 3324 3375 3344 3374

Tree=0
num_leaves=31
num_cat=18
split_feature=16 3 11 5 5 5 3 3 14 5 14 4 3 12 6 11 0 3 7 14 4 10 4 10 7 15 10 4 10 10
split_gain=1016.81 147.401 125.949 86.2486 67.4912 50.1416 33.6666 27.9757 27.1995 26.9827 26.1049 23.9216 20.2016 16.5435 13.1082 13.003 11.6584 10.6682 10.1949 16.0448 9.42724 11.6764 9.39175 9.26289 9.07766 8.59323 8.36316 7.74792 8.00138 7.62477
threshold=1.0000000180025095e-35 10.500000000000002 0 1 2 3 15.500000000000002 1.5000000000000002 118.27500000000002 4 202.20000000000002 5 29.500000000000004 1.0000000180025095e-35 6 7 1.0000000180025095e-35 47.500000000000007 8 1162.3000000000002 9 10 11 12 13 1.0000000180025095e-35 14 15 16 17
decision_type=2 2 1 1 1 1 2 2 2 1 2 1 2 2 1 1 2 2 1 2 1 1 1 1 1 2 1 1 1 1
left_child=2 3 5 8 12 6 -1 -7 -2 15 16 26 13 29 27 -4 25 -8 19 -9 -15 24 -6 -17 -22 -5 -10 -14 -29 -3
right_child=1 4 9 10 22 7 17 18 11 -11 -12 -13 14 20 -16 23 -18 -19 -20 -21 21 -23 -24 -25 -26 -27 -28 28 -30 -31
leaf_value=-0.81879685322152262 -0.70559380806625094 -1.0343896188795314 -1.1182377670703334 -0.96115252204554324 -0.99200542860595231 -0.96659746058666407 -0.95921069192575481 -0.98185777180345768 -0.88968601481661269 -1.1357516749054481 -1.0018268706326006 -0.75195894985281564 -0.99900055638032759 -0.90998269772378038 -1.0236892426428288 -1.1143018895502246 -0.75546647830948255 -1.078451390360887 -1.0986048792885919 -1.143048372771168 -0.79234710840531775 -0.78219974276350301 -1.0730230725112835 -1.0393877946207501 -0.93567864809594958 -0.86646129328690014 -0.79536461450406781 -0.96344612443019295 -0.87927526423023905 -0.88968601481661269
leaf_weight=15.790211275219916 35.869121909141541 9.16222135722637 66.279899179935455 13.450920715928076 23.392905592918396 27.681604951620102 26.122077912092209 20.858674153685573 30.215836390852928 342.31618517637253 23.587846472859383 38.013471588492393 12.866098076105118 24.952432632446289 19.883969753980637 22.418201193213463 7.0178716778755179 10.526807516813276 77.00164757668972 8.7723395973443967 6.6279899179935455 22.02831943333149 36.843826308846474 62.576022461056709 13.255979835987093 33.334890469908714 13.645861595869063 18.324442714452744 29.436072871088982 6.0431672781705847
leaf_count=81 184 47 340 69 120 142 134 107 155 1756 121 195 66 128 102 115 36 54 395 45 34 113 189 321 68 171 70 94 151 31
internal_value=-1.01833 -0.895567 -1.09374 -0.832108 -0.951142 -1.02379 -0.940867 -1.05617 -0.778209 -1.12021 -0.914111 -0.810021 -0.917642 -0.882729 -0.953232 -1.08504 -0.875657 -0.993461 -1.07942 -1.02958 -0.861319 -0.832347 -1.04156 -1.05915 -0.887901 -0.893685 -0.860342 -0.930124 -0.911569 -0.976879
internal_weight=1098.3 417.953 680.344 195.136 222.817 186.753 52.4391 134.314 117.744 493.59 77.3915 81.8752 162.581 82.0701 80.5106 151.274 53.8037 36.6489 106.633 29.631 66.8647 41.9123 60.2367 84.9942 19.884 46.7858 43.8617 60.6266 47.7605 15.2054
internal_count=5634 2144 3490 1001 1143 958 269 689 604 2532 397 420 834 421 413 776 276 188 547 152 343 215 309 436 102 240 225 311 245 78
cat_boundaries=0 1 2 3 4 5 6 7 8 9 10 11 12 13 14 15 16 17 18
cat_threshold=1 2 2 2 2 1 1 4 1 1 1 2 1 4 1 1 1 1
is_linear=0
shrinkage=1


Tree=1
num_leaves=31
num_cat=17
split_feature=16 11 3 5 5 5 5 3 3 14 14 14 4 12 11 7 14 14 3 10 4 6 4 10 12 4 12 6 6 7
split_gain=805.907 111.706 100.33 55.0644 50.9798 39.8957 25.3558 23.6773 23.2397 18.7771 15.9076 15.5284 14.653 13.5167 11.7257 8.89405 13.7236 8.66309 8.55631 8.1501 7.81125 7.73952 6.87233 8.4723 6.57631 7.74371 6.48414 6.46385 6.3214 10.7576
threshold=1.0000000180025095e-35 0 10.500000000000002 1 2 3 4 15.500000000000002 1.5000000000000002 109.92500000000001 118.27500000000002 3067.9000000000001 5 1.0000000180025095e-35 6 7 1162.3000000000002 460.77500000000003 47.500000000000007 8 9 10 11 12 1.0000000180025095e-35 13 1.0000000180025095e-35 14 15 16
decision_type=2 1 2 1 1 1 1 2 2 2 2 2 1 2 1 1 2 2 2 1 1 1 1 1 2 1 2 1 1 1
left_child=1 5 3 10 11 7 14 -1 -7 24 -2 13 26 -4 -3 16 -10 27 -9 -16 -6 -8 -15 -24 -5 -26 -12 -11 -13 -30
right_child=2 6 4 9 20 8 21 18 15 17 12 28 -14 22 19 -17 -18 -19 -20 -21 -22 -23 23 -25 25 -27 -28 -29 29 -31
leaf_value=0.16400600345635258 0.24601907159911512 -0.094664495605453702 0.038152043177134526 0.089052172663397475 0.023386628365385187 0.045403805321208003 -0.078486216887959009 0.051706142122835363 0.032244069577730107 0.081231431138103535 0.066806035737754885 0.067048599253289251 0.2131977301741308 0.090825399172284785 -0.090744635593921819 -0.075274725749968782 -0.11976197726325227 -0.092455923516707519 -0.0557863411586354 -0.019154256038739787 -0.050607168234800118 -0.11939219454630622 0.10875860009829491 0.18954435079552026 0.2429466068478878 0.12623869102410143 0.15326479921057401 -0.019901048588797654 0.092638255554240032 -0.068004099311538335
leaf_weight=17.202084124088287 40.718197584152222 63.122952580451965 20.459322720766068 18.640074849128723 23.680459856987 28.346940487623215 55.936915159225464 26.83847987651825 21.213216707110409 24.530488803982735 11.477858871221541 50.264833584427834 42.459671795368195 29.919040903449059 21.393023356795311 74.062776640057564 8.2490707933902723 4.5182552933692923 10.226798683404921 61.955278024077415 35.889395356178284 267.17237108945847 24.843027293682098 27.189617946743965 8.8105972856283188 16.027050614356995 35.512899309396744 8.5131928324699384 7.0001980662345886 10.305847153067591
leaf_count=81 184 340 103 90 120 142 304 134 107 122 55 247 195 147 115 395 45 23 54 321 189 1452 121 127 42 77 170 43 36 53
internal_value=-0.00039042 -0.0706789 0.104178 0.153917 0.0584133 -0.00512238 -0.0966652 0.0670466 -0.034821 0.0892053 0.194205 0.0863112 0.170619 0.110862 -0.0621522 -0.056788 -0.0103157 0.0374178 0.0220475 -0.0375294 -0.0211928 -0.112311 0.129014 0.150973 0.133946 0.167638 0.132147 0.0551762 0.0491015 -0.00302517
internal_weight=1096.48 655.72 440.76 211.208 229.552 186.139 469.581 54.2674 131.872 81.0397 130.169 169.982 89.4504 102.411 146.471 103.525 29.4623 37.5619 37.0653 83.3483 59.5699 323.109 81.9517 52.0326 43.4777 24.8376 46.9908 33.0437 67.5709 17.306
internal_count=5634 3490 2144 1001 1143 958 2532 269 689 397 604 834 420 498 776 547 152 188 188 436 309 1756 395 248 209 119 225 165 336 89
cat_boundaries=0 1 2 3 4 5 6 7 8 9 10 11 12 13 14 15 16 17
cat_threshold=1 2 2 2 2 1 4 1 1 2 1 1 1 2 1 1 1
is_linear=0
shrinkage=0.1


Tree=2
num_leaves=31
num_cat=12
split_feature=16 11 3 5 5 5 5 3 3 14 3 12 14 3 4 3 7 4 2 14 14 10 6 3 0 4 15 12 14 10
split_gain=648.668 99.1634 72.8433 39.1971 39.0013 32.0224 23.9816 19.3373 17.4218 14.5163 12.6094 13.0355 11.2 10.6762 10.3008 8.4567 12.2082 8.27311 10.8907 9.8813 8.21026 7.76689 7.48305 6.89039 6.60213 6.49314 6.21805 6.0584 6.21913 6.03527
threshold=1.0000000180025095e-35 0 10.500000000000002 1 2 3 4 1.5000000000000002 15.500000000000002 202.20000000000002 55.500000000000007 1.0000000180025095e-35 118.27500000000002 70.500000000000014 5 17.500000000000004 6 7 1.0000000180025095e-35 3512.3250000000003 5671.6000000000013 8 9 47.500000000000007 1.0000000180025095e-35 10 1.0000000180025095e-35 1.0000000180025095e-35 81.825000000000017 11
decision_type=2 1 2 1 1 1 1 2 2 2 2 2 2 2 1 2 1 1 2 2 2 1 1 2 2 1 2 2 2 1
left_child=1 5 4 10 12 8 13 -7 -1 24 11 -4 -2 21 -14 16 -9 19 29 -13 -12 -3 -8 -10 27 -5 -11 28 -6 -19
right_child=2 6 3 25 9 7 22 15 23 26 20 17 14 -15 -16 -17 -18 18 -20 -21 -22 -23 -24 -25 -26 -27 -28 -29 -30 -31
leaf_value=0.1388441978673367 0.20565314247584637 -0.0907221037460757 0.024995542257495548 0.02081312543570182 0.092886082859255772 0.040010576124164421 -0.073792346524862523 0.038079008636059675 0.045441555278144703 -0.041228610504825791 -0.084615784001352071 0.080457813483371776 0.11282877647809141 -0.10683066547458138 0.1788298677836358 -0.093134637257674277 -0.058246525331255072 0.096901960593223105 0.03876031057021443 -0.065101016473319187 0.048672140201849005 -0.027587782993245519 -0.11493772719258132 -0.051715312914987259 0.18706464556539956 -0.046778032221701987 0.060533904906558002 0.12058183601008617 -0.015311523223803542 0.15571274569884155
leaf_weight=18.225630775094032 43.654109716415405 25.519550666213036 29.776549682021141 23.933415412902832 13.881514132022859 28.918621301651001 53.666036128997803 18.102818727493286 27.449674785137177 11.538916662335396 7.2749105393886593 33.072750151157379 49.379124388098717 33.921383172273636 45.376771241426468 34.243116766214371 48.162932530045509 29.442631721496582 15.249691113829611 5.429395616054534 12.670253276824949 82.413062751293182 250.63097459077835 9.9438905417919141 8.1995897591114026 34.992884829640388 12.519098177552223 29.111702710390091 8.6059287339448911 42.837754815816879
leaf_count=81 184 144 147 120 65 142 304 90 134 59 36 157 225 190 195 190 267 139 72 27 62 442 1452 54 36 189 62 134 41 194
internal_value=-0.000632241 -0.0663251 0.0901117 0.0512555 0.131138 -0.00478003 -0.0918517 -0.03205 0.0586781 0.0773214 0.0749196 0.0845029 0.163743 -0.0578949 0.144435 -0.0527835 -0.0319318 0.0985622 0.115555 0.0599318 5.59577e-05 -0.0425152 -0.107681 0.0196051 0.103712 -0.0193253 0.0117257 0.0904661 0.0514789 0.131757
internal_weight=1088.14 631.198 456.947 234.68 222.267 185.047 446.151 129.427 55.6192 83.8568 175.754 155.809 138.41 141.854 94.7559 100.509 66.2658 126.032 87.5301 38.5021 19.9452 107.933 304.297 37.3936 59.7987 58.9263 24.058 51.5991 22.4874 72.2804
internal_count=5634 3490 2144 1143 1001 958 2532 689 269 397 834 736 604 776 420 547 357 589 405 184 98 586 1756 188 276 309 121 240 106 333
cat_boundaries=0 1 2 3 4 5 6 7 8 9 10 11 12
cat_threshold=1 2 2 2 2 1 1 1 1 1 2 1
is_linear=0
shrinkage=0.1


Tree=3
num_leaves=31
num_cat=12
split_feature=16 11 3 5 5 5 5 14 3 3 11 3 12 14 10 3 5 6 15 10 4 14 2 3 14 3 4 14 14 12
split_gain=527.286 88.0381 55.2565 30.4949 29.4006 25.8539 22.8016 16.291 13.2146 11.3305 10.3729 9.82882 9.22305 8.7828 9.51027 8.21661 10.6817 7.29941 6.79058 6.50808 6.05019 7.5864 6.36523 5.62848 5.70394 5.56587 5.39333 5.23376 5.57476 4.9126
threshold=1.0000000180025095e-35 0 10.500000000000002 1 2 3 4 20.925000000000001 15.500000000000002 5.5000000000000009 5 53.500000000000007 1.0000000180025095e-35 118.27500000000002 6 17.500000000000004 7 8 1.0000000180025095e-35 9 10 1611.4000000000003 1.0000000180025095e-35 16.500000000000004 4261.3500000000013 47.500000000000007 11 2615.8500000000008 2318.4500000000003 1.0000000180025095e-35
decision_type=2 1 2 1 1 1 1 2 2 2 1 2 2 2 1 2 1 1 2 1 1 2 2 2 2 2 1 2 2 2
left_child=1 5 4 11 13 8 10 -7 -1 18 -3 12 -4 -2 29 16 -9 27 -6 -12 21 -14 23 -22 -25 -10 -5 28 -8 -15
right_child=2 6 3 26 9 7 17 15 25 -11 19 -13 20 14 -16 -17 -18 -19 -20 -21 22 -23 -24 24 -26 -27 -28 -29 -30 -31
leaf_value=0.11984279878459775 0.17809678943779772 -0.08616315616579924 0.024396626033493417 0.018549311797432251 0.037821815981553285 0.044264827002964635 -0.05908236798028247 0.018082854841453413 0.040089570310043642 0.00043669323596844643 -0.080919855242909497 0.0049628349089566766 0.10483144030850733 0.04755558033101747 0.16404769641671657 -0.088407899025724671 -0.060889201506344581 -0.11091470277381872 0.10791461774666662 -0.014328335560453487 0.16373985781121869 0.015792523193454186 0.041198930939512109 0.084909980946358529 0.17619549223576131 -0.04788978495976999 -0.043189919340827894 -0.098793790752220334 0.062108155236343332 0.11565696966376737
leaf_weight=18.959969580173492 45.266419529914856 57.737812072038651 29.698807254433632 24.156376719474792 19.580231159925461 24.233406275510788 18.978381633758548 29.585589811205864 27.973014444112778 19.390208572149277 19.388727381825447 23.292061671614647 16.626754224300385 13.700993880629538 38.027353644371033 32.55529597401619 40.674053549766541 234.58105087280273 46.996178075671196 60.383179306983948 16.805306628346443 22.543902948498726 14.880369216203688 48.442855089902878 7.9713051766157141 9.6787026822566968 34.155297338962555 27.789773106575012 4.7445954084396353 46.68813157081604
leaf_count=81 184 340 145 120 92 117 112 151 134 97 115 114 76 60 160 190 231 1452 208 321 73 107 69 214 36 54 189 164 28 200
internal_value=-0.000790138 -0.0622736 0.0789512 0.0452467 0.113965 -0.00444814 -0.0873448 -0.0294933 0.0517584 0.0677077 -0.0538798 0.065581 0.0745759 0.141642 0.124874 -0.0468781 -0.0276349 -0.10343 0.0873002 -0.0305135 0.0862853 0.0535868 0.100824 0.112941 0.0978086 0.0174737 -0.0176136 -0.0693434 -0.0348443 0.100206
internal_weight=1075.49 607.264 468.223 238.573 229.65 183.66 423.604 127.048 56.6117 85.9666 137.51 180.261 156.969 143.683 98.4165 102.815 70.2596 286.094 66.5764 79.7719 127.27 39.1707 88.0998 73.2195 56.4142 37.6517 58.3117 51.5128 23.723 60.3891
internal_count=5634 3490 2144 1143 1001 958 2532 689 269 397 776 834 720 604 420 572 382 1756 300 436 575 183 392 323 250 188 309 304 140 260
cat_boundaries=0 1 2 3 4 5 6 7 8 9 10 11 12
cat_threshold=1 2 2 2 2 4 1 1 1 1 1 2
is_linear=0
shrinkage=0.1


Tree=4
num_leaves=31
num_cat=13
split_feature=11 5 3 3 5 13 13 15 14 9 3 3 10 3 12 9 6 3 14 3 10 14 4 14 8 14 4 14 14 0
split_gain=437.716 96.6602 52.4423 36.6613 21.7177 15.4286 14.7221 12.7062 16.1985 12.6619 9.57167 8.77909 8.66031 8.01585 7.92427 7.26714 7.14108 6.859 6.82752 9.63302 6.42671 6.35296 5.84585 5.72013 5.66264 5.60897 5.12755 5.5309 4.83515 4.75766
threshold=0 1 13.500000000000002 3.5000000000000004 2 3 4 1.0000000180025095e-35 913.00000000000011 5 70.500000000000014 8.5000000000000018 6 32.500000000000007 1.0000000180025095e-35 7 8 55.500000000000007 1058.4250000000002 10.500000000000002 9 178.82500000000002 10 3067.9000000000001 11 5718.0250000000005 12 69.875000000000014 2749.8500000000004 1.0000000180025095e-35
decision_type=1 1 2 2 1 1 1 2 2 1 2 2 1 2 2 1 1 2 2 2 1 2 1 2 1 2 1 2 2 2
left_child=1 2 14 9 10 17 7 24 11 -3 20 -9 15 29 21 -7 28 22 19 26 -2 -1 23 -4 -5 -19 27 -16 -6 -14
right_child=4 3 5 6 16 12 -8 8 -10 -11 -12 -13 13 -15 18 -17 -18 25 -20 -21 -22 -23 -24 -25 -26 -27 -28 -29 -30 -31
leaf_value=0.13176714414903715 -0.081916569548810908 0.082826538165451311 0.06875631528565318 0.0091657549497405136 -0.034051009524679217 0.00040947817437707334 -0.043178901070117376 0.067314855202736334 -0.048052810494694349 0.011394705929088549 -0.099240427473570439 0.2169233038879563 0.061613329336873503 0.0058850079614372053 0.20787736066419613 -0.098904845144691542 -0.10722863908152057 -0.087873287274981893 0.20918969786511768 0.033013508561689421 -0.022036232563139489 0.048223366102592133 0.098711888610977558 -0.041040839182007925 -0.081028949054081756 0.051125783322651587 0.15713753740721451 0.10764842676825964 -0.096568635994969468 0.17512449549952305
leaf_weight=14.642149046063421 23.126295998692513 56.09853233397007 21.718521863222126 21.621482580900192 24.852819979190826 38.891803815960884 114.7207807302475 8.832138657569887 7.0864563584327689 44.499127238988876 30.573847264051437 7.0555871278047553 12.996921107172968 24.110049992799759 5.9913840293884268 9.0898489952087385 219.178555727005 4.2087095975875846 10.310813024640082 10.5484781563282 79.667486131191254 24.057404085993767 72.506295755505562 6.0712552964687339 10.265674337744715 9.3581075668334943 50.412004962563515 67.9124536216259 24.632169663906097 5.15781645476818
leaf_count=60 144 244 100 116 150 182 636 41 39 224 190 36 58 117 24 44 1452 22 43 46 442 103 323 30 59 46 204 282 154 23
internal_value=-0.000893293 0.0493255 0.0813054 0.00340176 -0.0831063 0.0464103 -0.0249697 0.0177439 0.0776755 0.0512288 -0.0501183 0.133755 0.0096046 0.0436754 0.12004 -0.0184051 -0.099482 0.0687047 0.130759 0.124762 -0.035508 0.0798325 0.0837655 0.0447688 -0.0198713 0.00800537 0.132548 0.115774 -0.0651704 0.0938622
internal_weight=1060.19 658.164 387.984 270.18 402.031 204.109 169.582 54.8613 22.9742 100.598 133.368 15.8877 90.2464 42.2648 183.875 47.9817 268.664 113.863 145.175 134.864 102.794 38.6996 100.296 27.7898 31.8872 13.5668 124.316 73.9038 49.485 18.1547
internal_count=5634 3102 1707 1395 2532 945 927 291 116 468 776 77 424 198 762 226 1756 521 599 556 586 163 453 130 175 68 510 306 304 81
cat_boundaries=0 1 2 3 4 5 6 7 8 9 10 11 12 13
cat_threshold=1 2 2 4 4 1 1 1 1 1 1 1 1
is_linear=0
shrinkage=0.1


Tree=5
num_leaves=31
num_cat=12
split_feature=11 6 3 5 11 10 5 13 3 5 3 14 10 12 13 14 14 12 4 1 12 3 4 14 3 14 14 14 12 3
split_gain=366.473 80.2009 35.3026 23.8543 21.4258 23.7444 17.9272 9.04279 8.05312 13.6637 12.5698 7.80815 6.27455 5.92849 5.92068 6.64839 5.65506 6.06369 5.60684 5.52893 5.14553 5.03812 5.03752 5.5576 4.94988 4.7261 4.59364 5.99351 4.11386 5.84351
threshold=0 1 7.5000000000000009 2 3 4 5 6 1.5000000000000002 7 29.500000000000004 1925.7 8 1.0000000180025095e-35 9 592.70000000000016 81.825000000000017 1.0000000180025095e-35 10 1.0000000180025095e-35 1.0000000180025095e-35 17.500000000000004 11 69.875000000000014 15.500000000000002 1453.0250000000003 2896.5750000000003 1837.8000000000004 1.0000000180025095e-35 47.500000000000007
decision_type=1 1 2 1 1 1 1 1 2 1 2 2 1 2 1 2 2 2 1 2 2 2 1 2 2 2 2 2 2 2
left_child=1 2 6 7 -2 -6 22 20 13 -10 11 14 28 -3 24 -16 -8 -18 -5 21 26 -20 23 -1 -11 -14 27 -4 -9 -30
right_child=4 8 3 18 5 -7 16 12 9 10 -12 -13 25 -15 15 -17 17 -19 19 -21 -22 -23 -24 -25 -26 -27 -28 -29 29 -31
leaf_value=0.18901943903709792 -0.10190956032680945 0.00063641050166089546 0.020090196966563018 0.024748438649948926 -0.017803018810288639 -0.089690723424581356 0.087371964177167583 -0.05481538466471722 -0.064267455780231852 0.0010845816532570355 -0.043731179023762501 0.12519281495957033 0.12369483273641146 0.087072250607128324 -0.0063213019810923329 0.083794666996143574 -0.011658466122220486 0.069083602235994176 0.034346851051538466 -0.082920311329777799 0.09005059705056373 -0.061826740994995882 0.14960867279804058 0.098267063324289611 -0.093355306199613339 0.037194637845152485 -0.034827542292407677 0.16129487297542175 0.033889286026409865 -0.081248893654554566
leaf_weight=7.4727459847927085 197.7523550838232 20.654040694236755 8.8709430694580096 26.343507528305054 90.035594150424004 93.828707695007324 38.599072337150574 10.441811844706534 48.523117572069168 18.634016692638401 41.598438054323196 7.1200462579727164 7.985088884830474 12.885847508907316 13.838735863566397 20.045208603143692 16.859823107719421 20.746516853570938 13.529218018054964 14.829789027571676 107.09161432087421 9.1179915368556959 43.586922109127045 69.571531519293785 7.9039681404829016 30.225128278136253 6.4362401813268653 4.546588420867919 29.617236018180847 5.1786748617887488
leaf_count=30 1359 97 39 134 529 644 164 51 296 90 216 32 33 59 66 97 78 95 71 85 462 54 175 285 45 138 31 21 132 26
internal_value=-0.00100765 0.0439702 0.0661416 0.0429475 -0.0790619 -0.0544884 0.0984534 0.0591918 -0.0106512 -0.0201168 -0.000487763 0.0261454 0.0227132 0.0338446 0.0144738 0.0362821 0.0604834 0.032885 -0.0106044 -0.0354548 0.0754393 -0.00437359 0.12244 0.107069 -0.0196417 0.0552713 0.0346232 0.067938 0.000233731 0.0167533
internal_weight=1043.87 662.254 471.05 274.214 381.617 183.864 196.837 210.393 191.203 157.664 109.14 67.542 83.4479 33.5399 60.4219 33.8839 76.2054 37.6063 63.8205 37.477 126.945 22.6472 120.631 77.0443 26.538 38.2102 19.8538 13.4175 45.2377 34.7959
internal_count=5634 3102 2104 1277 2532 1173 827 933 998 842 546 330 380 156 298 163 337 173 344 210 553 125 490 315 135 171 91 60 209 158
cat_boundaries=0 1 2 3 4 5 6 7 8 9 10 11 12
cat_threshold=1 1 2 4 4 2 4 4 1 9 2 1
is_linear=0
shrinkage=0.1


Tree=6
num_leaves=31
num_cat=15
split_feature=11 6 3 6 5 5 5 14 14 5 3 12 3 14 11 4 14 13 7 13 3 14 13 3 14 1 9 4 3 14
split_gain=307.772 64.0233 28.5609 20.9236 20.1712 13.4224 8.01368 7.33479 6.72187 13.4221 10.4981 9.5867 6.53069 6.47672 6.35381 5.56234 6.45916 5.54225 4.96678 6.13829 5.71635 5.51988 4.44859 4.19034 4.82783 5.99644 4.11514 5.63881 3.59729 4.08209
threshold=0 1 16.500000000000004 2 3 4 5 81.825000000000017 33.650000000000013 6 29.500000000000004 1.0000000180025095e-35 70.500000000000014 1925.7 7 8 69.875000000000014 9 10 11 8.5000000000000018 357.90000000000003 12 23.500000000000004 4822.5000000000009 1.0000000180025095e-35 13 14 51.500000000000007 2201.0000000000005
decision_type=1 1 2 1 1 1 1 2 2 1 2 2 2 2 1 1 2 1 1 1 2 2 1 2 2 2 1 1 2 2
left_child=1 2 4 14 15 17 12 -6 -3 -10 11 -11 -5 -13 -2 16 -1 -4 19 20 -9 -20 -16 -24 -25 -26 27 -7 29 -19
right_child=3 8 5 6 7 26 -8 18 9 10 -12 13 -14 -15 22 -17 -18 28 21 -21 -22 -23 23 24 25 -27 -28 -29 -30 -31
leaf_value=0.17369421549422878 -0.073530214725580884 0.035088420889418846 0.056054033766138225 -0.03790038487306327 0.077164055505126242 0.03758715534956783 -0.10096595699366698 0.060175910635792987 -0.063411437543328522 -0.021959566532088207 -0.040218361672022244 0.036841276004881122 -0.10962562286633422 0.1479998769654296 0.0081112373828938975 0.11772960913886817 0.076450041627575502 -0.019638704861666089 0.029954853474350437 -0.0057569475378015751 0.17105356475793315 -0.083102483359315485 0.038002914506090744 -0.094280368916575902 0.070730214893980695 -0.060506028390835159 -0.078790998095179032 -0.056897932921847666 -0.039870850367493604 0.042461526142505396
leaf_weight=7.3257085382938376 35.368266522884369 28.401103407144547 84.621940344572067 42.585439011454582 39.294200479984283 14.064052507281303 192.27863648533821 15.630760967731478 45.878302723169327 28.982780233025551 40.754389733076096 39.216311678290367 18.08576075732708 6.0503515899181357 33.38246688246727 80.481746017932892 101.03325140476227 15.337835088372229 9.1492678374052065 25.546509459614754 6.6186386048793784 8.1790353953838331 4.9079398810863486 19.426920935511589 4.9981156587600717 11.475220397114754 10.672518491744993 11.465525582432747 11.056616917252539 34.159983158111572
leaf_count=30 243 134 369 259 164 69 1452 69 291 146 216 185 128 26 202 326 416 70 44 123 31 45 31 123 29 65 67 69 56 156
internal_value=-0.00105123 0.0394111 0.0590215 -0.0751565 0.0783133 0.0278299 -0.0909677 0.0430438 -0.0097629 -0.0176807 0.000562644 0.0229467 -0.0592813 0.0516988 -0.0386515 0.0978153 0.0830243 0.0414143 0.0224565 0.0390849 0.0642721 -0.0234087 -0.022024 -0.0390855 -0.0605115 -0.0206881 -0.0266458 -0.00484681 0.0100409 0.0232186
internal_weight=1026.43 663.921 474.638 362.509 293.259 181.378 252.95 104.418 189.283 160.882 115.004 74.2494 60.6712 45.2667 109.559 188.841 108.359 145.176 65.1242 47.7959 22.2494 17.3283 74.1907 40.8082 35.9003 16.4733 36.2021 25.5296 60.5544 49.4978
internal_count=5634 3102 2104 2532 1248 856 1839 476 998 864 573 357 387 211 693 772 446 651 312 223 100 89 450 248 217 94 205 138 282 226
cat_boundaries=0 1 2 3 4 5 6 7 8 9 10 11 12 13 14 15
cat_threshold=1 1 1 2 2 2 4 4 1 4 1 4 12 1 2
is_linear=0
shrinkage=0.1


Tree=7
num_leaves=31
num_cat=15
split_feature=11 6 3 11 10 13 5 12 4 5 5 14 3 10 1 14 10 5 0 3 3 10 14 3 14 7 14 12 4 14
split_gain=259.253 51.5641 24.5107 20.188 21.062 15.6558 13.0753 8.00267 8.31675 6.35146 6.12822 10.3525 8.24612 6.97596 5.27723 5.17882 5.07476 4.42294 4.41749 4.17944 6.76011 4.09799 9.08288 4.60977 3.89017 3.88399 3.84251 6.5762 3.76391 4.3505
threshold=0 1 7.5000000000000009 2 3 4 5 1.0000000180025095e-35 6 7 8 33.650000000000013 29.500000000000004 9 1.0000000180025095e-35 654.52500000000009 10 11 1.0000000180025095e-35 37.500000000000007 43.500000000000007 12 1453.0250000000003 21.500000000000004 7786.2250000000013 13 228.20000000000002 1.0000000180025095e-35 14 69.875000000000014
decision_type=1 1 2 1 1 1 1 2 1 1 1 2 2 1 2 2 1 1 2 2 2 1 2 2 2 1 2 2 1 2
left_child=1 2 6 17 -5 7 28 -4 -9 16 12 -12 13 -3 -11 -10 -7 24 -18 -14 -21 22 23 26 -2 -22 27 -13 29 -1
right_child=3 10 5 4 -6 9 -8 8 15 14 11 21 19 -15 -16 -17 18 -19 -20 20 25 -23 -24 -25 -26 -27 -28 -29 -30 -31
leaf_value=0.16194893655886242 -0.052610724578952689 0.01227909223238545 0.0080601536802328688 -0.012522606641342915 -0.082742900493114627 -0.0035820992536287712 0.047906814938955489 0.026731022449766485 0.19205509948413269 -0.00067358253458811861 0.031140377110896039 -0.028978937362096946 -0.094837955321873696 0.10432200032741948 -0.079486190026451353 0.077770875295683467 0.024294282315564887 -0.10517255976404603 0.098952903843241929 0.11673065542075496 -0.063274492125916793 -0.054147958698638948 -0.095899601686066926 0.1132698253117414 -0.11872306462591092 0.038093200109170465 -0.035297189938192551 0.12293726320935393 0.12409319348879518 0.079730727430633377
leaf_weight=7.0834330916404715 35.272187635302544 20.223406746983528 28.115855798125267 86.976238518953323 83.935255244374275 45.469196259975433 78.048214599490166 36.855777129530907 4.1509625762701026 21.945599362254143 28.780221089720726 6.055280759930616 6.3808260858058956 13.889568507671354 13.862852498888968 88.575216934084892 27.707024604082108 126.4379720389843 11.100483670830725 3.8806183040142086 11.35439358651638 57.656303778290749 9.7989010065793973 4.1201989203691474 11.904045805335043 5.6661567091941842 14.261437088251112 5.3822659850120544 43.175754830241203 70.39201757311821
leaf_count=30 250 87 133 529 644 209 337 165 18 122 134 29 31 57 81 378 122 1019 49 19 61 366 60 24 90 29 77 24 175 285
internal_value=-0.00101977 0.0355046 0.0529841 -0.0714054 -0.047008 0.0338019 0.079801 0.0530573 0.066915 0.00378202 -0.00892715 -0.0215458 0.0169811 0.0497556 -0.031185 0.0828869 0.019088 -0.095423 0.0456496 -0.0239997 -0.00237376 -0.0371338 -0.0123731 0.0150746 -0.0692929 -0.0295291 -0.000668634 0.0425096 0.100433 0.0872478
internal_weight=1008.46 663.932 476.482 344.526 170.911 277.783 198.699 157.698 129.582 120.085 187.45 126.055 61.395 34.113 35.8085 92.7262 84.2767 173.614 38.8075 27.282 20.9012 97.2744 39.6181 29.8192 47.1762 17.0206 25.699 11.4375 120.651 77.4755
internal_count=5634 3102 2104 2532 1173 1277 827 694 561 583 998 714 284 144 203 396 380 1359 171 140 109 580 214 154 340 90 130 53 490 315
cat_boundaries=0 1 2 3 4 5 6 7 8 9 10 11 12 13 14 15
cat_threshold=1 1 4 4 4 2 1 2 2 1 1 2 1 4 1
is_linear=0
shrinkage=0.1


Tree=8
num_leaves=31
num_cat=15
split_feature=11 5 14 6 3 0 5 12 15 3 13 7 14 9 10 11 13 3 13 3 14 1 10 9 14 14 3 4 10 14
split_gain=218.264 42.4362 25.9346 19.4633 18.7558 8.63543 7.79289 7.35901 9.01896 6.03783 5.9652 6.89857 12.181 5.6022 5.56157 5.12796 4.85548 4.11004 3.9916 3.77771 4.31078 5.01774 3.75703 4.04317 3.70645 4.38822 6.75535 4.67197 3.68487 3.63333
threshold=0 1 1556.2500000000002 2 5.5000000000000009 1.0000000180025095e-35 3 1.0000000180025095e-35 1.0000000180025095e-35 70.500000000000014 4 5 893.37500000000011 6 7 8 9 8.5000000000000018 10 23.500000000000004 4822.5000000000009 1.0000000180025095e-35 11 12 118.27500000000002 1420.5750000000003 15.500000000000002 13 14 7261.8750000000009
decision_type=1 1 2 1 2 2 1 2 2 2 1 1 2 1 1 1 1 2 1 2 2 2 1 1 2 2 2 1 1 2
left_child=1 2 7 15 5 13 9 8 -1 -5 11 12 17 14 -3 29 -4 -6 -17 -20 -21 -22 23 -18 -9 26 27 -26 -29 -2
right_child=3 4 16 6 10 -7 -8 24 -10 -11 -12 -13 -14 -15 -16 18 22 -19 19 20 21 -23 -24 -25 25 -27 -28 28 -30 -31
leaf_value=-0.025799242473900971 -0.080734547342947729 0.02849575606765363 0.037412715366945348 -0.031779568213525983 0.027990428467733752 0.11441983274038117 -0.095157319556068973 0.11378809651774568 0.070287296999563445 -0.10454843703942539 -0.037485718070907031 -0.03798943213227457 -0.038079142152662983 -0.002323342298007141 0.11106402220263799 0.010161227966417096 -0.0031479251436950227 0.13344242607510612 0.03966409014269736 -0.088453603629312205 0.064794640129876388 -0.05515647067196288 0.024210148245354366 -0.084437364557454209 0.059578825871509755 0.14652505726070569 -0.019769466203552882 0.076244615616942624 0.12653047646792598 0.0083678193143731563
leaf_weight=14.292087644338606 26.366596035659317 52.251061215996742 100.89200216531754 40.614045411348343 5.7305330783128801 10.725161492824553 167.78164467215538 35.949084505438805 30.863900437951088 15.852844096720217 90.14690089225769 19.38310569524765 11.67688527703285 55.69867217540741 9.6670522242784482 32.850643262267113 30.167455494403839 10.410571873188017 4.863289311528205 17.823244705796242 5.1108217984437951 10.978774055838585 40.414867058396339 7.675352379679679 62.037270292639732 8.6793835312128049 7.3887095600366584 32.332897648215294 26.528843179345131 5.537578046321868
leaf_count=61 200 221 440 259 27 45 1452 150 129 128 548 113 66 287 41 202 143 47 31 123 29 65 186 40 251 36 31 132 108 43
internal_value=-0.00103438 0.031971 0.0526634 -0.0677855 0.00103464 0.0285204 -0.0843428 0.075823 0.0398754 -0.0522091 -0.0246488 0.00644416 0.0397213 0.0206874 0.0413868 -0.0319225 0.0244721 0.0960041 -0.0170692 -0.0339926 -0.0545789 -0.0170543 0.00266717 -0.0196352 0.0852105 0.0777099 0.0730542 0.0787271 0.0989083 -0.0652691
internal_weight=990.691 662.912 397.222 327.779 265.69 128.342 224.249 218.072 45.156 56.4669 137.348 47.2011 27.818 117.617 61.9181 103.531 179.15 16.1411 71.6268 38.7761 33.9128 16.0896 78.2577 37.8428 172.916 136.967 128.288 120.899 58.8617 31.9042
internal_count=5634 3102 1707 2532 1395 594 1839 898 190 387 801 253 140 549 262 693 809 74 450 248 217 94 369 183 708 558 522 491 240 243
cat_boundaries=0 1 2 3 4 5 6 7 8 9 10 11 12 13 14 15
cat_threshold=1 2 1 2 4 1 1 1 4 4 12 1 1 1 1
is_linear=0
shrinkage=0.1


Tree=9
num_leaves=31
num_cat=11
split_feature=11 6 11 10 3 5 5 12 14 5 3 12 14 5 14 4 14 14 14 14 10 0 14 12 14 14 4 14 14 12
split_gain=183.833 35.6392 18.9364 18.4482 17.1863 10.4505 9.77891 4.96117 4.49467 8.83364 6.61184 5.93395 4.76063 4.4859 4.44993 6.62187 6.32785 5.42158 12.7791 3.89399 3.76651 3.74237 3.97733 3.67031 4.20498 5.40057 4.07594 3.96864 5.04519 3.6045
threshold=0 1 2 3 7.5000000000000009 4 5 1.0000000180025095e-35 33.650000000000013 6 29.500000000000004 1.0000000180025095e-35 1925.7 7 1556.2500000000002 8 1684.8000000000004 2530.9000000000005 2201.0000000000005 7786.2250000000013 9 1.0000000180025095e-35 483.87500000000006 1.0000000180025095e-35 81.825000000000017 49.775000000000006 10 129.57500000000002 244.70000000000002 1.0000000180025095e-35
decision_type=1 1 1 1 2 1 1 2 2 1 2 2 2 1 2 1 2 2 2 2 1 2 2 2 2 2 1 2 2 2
left_child=1 4 13 29 6 7 -1 -6 -3 -10 11 -11 -13 19 -9 17 -17 18 -16 20 -2 22 -7 24 25 -8 -25 -26 -29 -4
right_child=2 8 3 -5 5 21 23 14 9 10 -12 12 -14 -15 15 16 -18 -19 -20 -21 -22 -23 -24 26 27 -27 -28 28 -30 -31
leaf_value=0.084050588753704247 -0.02580233645156306 0.027574701055130692 -0.039265030886401757 -0.076202916555404732 0.004618699697413165 0.033225086649855601 0.015027288411027205 0.065585510059554403 -0.05445419603446644 -0.019119029880544841 -0.034057789728761535 0.026227638853455911 0.12016284804498918 -0.10025588775598332 -0.043593614620426074 -0.07683298059385435 0.051226730586515806 -0.058754625046140485 0.16595594937621105 -0.1155355124575515 -0.10443510941879847 0.046318747245032543 -0.034327291988396097 0.10190442100688346 -0.097414524301146999 0.13908001605444911 0.036874487893101014 0.056429913968209171 -0.076454471482114678 0.0055900722395602377
leaf_weight=118.39316956698895 24.640588819980621 29.114461436867714 25.797836482524872 75.273308619856834 37.590804368257523 11.09548072516918 12.921658992767336 64.534121170639992 41.936182051897049 28.445183143019676 39.04135861992836 39.637998521327972 6.2452509105205527 109.31681820750237 7.842193469405176 4.0403804481029502 85.769321829080582 12.646275892853735 4.6274503320455551 10.379626929759977 8.0921445637941343 10.243114292621611 40.639692209661007 14.225890278816223 4.8401800990104702 4.8178021460771552 29.888104811310768 8.0491563528776151 4.4293819665908805 58.631593242287636
leaf_count=490 184 134 171 644 171 54 53 264 291 146 216 185 26 1019 34 17 367 60 20 90 66 55 235 59 21 20 127 36 21 358
internal_value=-0.00102107 0.0288456 -0.0642709 -0.0402075 0.0432896 0.0273107 0.0658572 0.0376522 -0.00848185 -0.0152412 -0.000736073 0.0167663 0.0390133 -0.0894826 0.0445716 0.0327717 0.0454655 -0.0126192 0.0341696 -0.0621656 -0.0452418 -0.0089056 -0.0198395 0.0386511 0.0144988 0.0487184 0.0578454 -0.0205521 0.00926127 -0.00811563
internal_weight=973.147 661.015 312.132 159.703 476.594 279.029 197.565 217.051 184.42 155.306 113.37 74.3284 45.8832 152.429 179.46 114.926 89.8097 25.1159 12.4696 43.1124 32.7327 61.9783 51.7352 79.1722 35.0582 17.7395 44.114 17.3187 12.4785 84.4294
internal_count=5634 3102 2532 1173 2104 1277 827 933 998 864 573 357 211 1359 762 498 384 114 54 340 250 344 289 337 151 73 186 78 57 529
cat_boundaries=0 1 2 3 4 5 6 7 8 9 10 11
cat_threshold=1 1 4 4 2 2 4 2 1 4 2
is_linear=0
shrinkage=0.1


Tree=10
num_leaves=31
num_cat=14
split_feature=11 13 11 10 5 3 3 3 14 12 7 10 3 4 9 5 3 14 14 14 15 14 0 10 9 14 14 10 14 10
split_gain=154.886 29.7301 17.9485 16.4737 11.5578 12.769 10.2824 9.58012 9.37285 5.54789 6.14452 4.99163 4.60508 6.77831 4.56934 4.48559 4.42514 4.34922 4.48452 8.41065 5.56806 3.76563 3.5693 3.49718 3.3727 4.57494 3.83937 3.40602 3.27548 3.20276
threshold=0 1 2 3 4 12.500000000000002 22.500000000000004 4.5000000000000009 2032.1250000000002 1.0000000180025095e-35 5 6 1.5000000000000002 7 8 9 43.500000000000007 2896.5750000000003 4039.8500000000004 4485.6750000000011 1.0000000180025095e-35 7786.2250000000013 1.0000000180025095e-35 10 11 33.650000000000013 50.850000000000001 12 136.92500000000004 13
decision_type=1 1 1 1 1 2 2 2 2 2 1 1 2 1 1 1 2 2 2 2 2 2 2 1 1 2 2 1 2 1
left_child=1 6 15 -4 5 -3 9 24 29 10 -1 14 -11 28 -7 21 22 -10 20 -20 -19 23 -13 -2 -6 -26 -27 -28 -14 -8
right_child=2 4 3 -5 7 11 8 -9 17 12 -12 16 13 -15 -16 -17 -18 18 19 -21 -22 -23 -24 -25 25 26 27 -29 -30 -31
leaf_value=0.052325124612511001 -0.10179971416689924 0.062645106833373862 -0.0073563982002533617 -0.072742953499968663 0.033408237342056848 -0.0066460294494244919 -0.0193860397535386 -0.035658146748241193 0.067145602107570257 0.098706613136196705 -0.020209611339819265 0.027823384180775398 -0.046674344486751777 0.080435148472497026 -0.088250725517975886 -0.097829396085784337 -0.015799741833740586 -0.054318547181034432 0.12915191589910952 0.014099703962419009 0.034884387811428462 -0.11384525037594578 0.10752188544709772 -0.023657601683741473 0.018341317095264223 -0.12822814290825396 0.047840987258433443 -0.060616453703745167 0.04207981792682941 -0.11825894123360768
leaf_weight=42.727360725402832 7.5019544363021868 54.286743342876434 84.000604413449764 71.183619096875191 37.285630375146866 40.344817623496056 9.5866968929767591 93.799251437187195 26.669365525245667 38.18843375146389 16.07160684466362 20.25633001327515 4.4651870578527442 72.677021026611328 8.2676700353622419 101.24256013333797 16.137261539697647 14.31999471783638 8.5390028208494169 24.829763561487198 13.684582769870758 9.5241421535611135 7.7766267657279959 24.210479721426964 26.32421313226223 4.4394224435091045 4.6441852003335926 7.6901606321334848 60.466335237026215 4.9770740419626227
leaf_count=183 66 224 529 644 156 187 50 587 118 164 77 88 20 306 44 1019 79 65 38 116 59 90 33 184 120 28 22 50 260 28
internal_value=-0.00101662 0.0260447 -0.0608785 -0.0373495 0.00337617 0.0241235 0.0461717 -0.0139478 0.0211366 0.0590895 0.0324991 0.00158469 0.0679832 0.059457 -0.0205248 -0.0865055 0.0259177 0.0334291 0.0187778 0.0435413 -0.0107291 -0.0587036 0.0499326 -0.0421431 0.0113859 -0.00766639 -0.0484821 -0.0197796 0.0359764 -0.0531752
internal_weight=956.118 658.455 297.663 155.184 321.252 147.069 337.202 174.183 102.606 234.596 58.799 92.7827 175.797 137.609 48.6125 142.479 44.1702 88.0427 61.3733 33.3688 28.0046 41.2366 28.033 31.7124 80.3836 43.098 16.7738 12.3343 64.9315 14.5638
internal_count=5634 3102 2532 1173 1618 655 1484 963 474 1010 260 431 750 586 231 1359 200 396 278 154 124 340 121 250 376 220 100 72 280 78
cat_boundaries=0 1 2 3 4 5 6 7 8 9 10 11 12 13 14
cat_threshold=1 4 4 4 2 1 1 1 1 2 1 1 1 1
is_linear=0
shrinkage=0.1


Tree=11
num_leaves=31
num_cat=11
split_feature=11 6 6 3 5 5 5 3 12 10 0 7 3 14 14 12 14 14 4 14 14 2 3 14 4 14 14 14 14 7
split_gain=130.446 24.9642 17.2548 12.1454 8.60541 7.32972 6.03972 5.29755 4.67561 4.11969 3.8588 5.87222 5.26303 10.2236 5.47146 3.82383 4.12116 7.50474 5.17629 4.904 8.152 4.08342 4.07874 3.56204 3.21996 4.4166 4.35832 4.2364 3.18863 3.34572
threshold=0 1 2 6.5000000000000009 3 4 5 70.500000000000014 1.0000000180025095e-35 6 1.0000000180025095e-35 7 23.500000000000004 592.70000000000016 33.650000000000013 1.0000000180025095e-35 1202.7750000000003 1058.4250000000002 8 2530.9000000000005 2201.0000000000005 1.0000000180025095e-35 10.500000000000002 1577.1000000000001 9 69.875000000000014 436.75000000000006 221.02500000000001 3315.1250000000005 10
decision_type=1 1 1 2 1 1 1 2 2 1 2 1 2 2 2 2 2 2 1 2 2 2 2 2 1 2 2 2 2 1
left_child=1 3 8 6 15 7 24 -4 -2 28 12 -12 13 14 -3 -5 17 22 19 20 23 -20 -17 -18 25 -1 27 -27 -10 -30
right_child=2 10 5 4 -6 -7 -8 -9 9 -11 11 -13 -14 -15 -16 16 18 -19 21 -21 -22 -23 -24 -25 -26 26 -28 -29 29 -31
leaf_value=0.14004201980349334 -0.057016545525139198 0.016618434031764006 -0.024070101319078413 0.0037510939861605318 -0.0091335960574593592 -0.08718315561241935 0.03442481390520967 -0.098023055431628439 0.053186946245824984 -0.055363298710650349 -0.031448492639736633 0.068538663025442217 -0.045074607283886015 0.050974341381474775 -0.036215743821681572 0.059433284752377274 0.032311264105474934 0.12912808969443523 0.049228339978246764 -0.055199584825124208 0.13807300697634967 -0.003542411808280839 -0.013402425244807363 -0.061618264337612506 0.095713648732074261 0.06116407754679113 0.13432988475726701 0.0028543483122261798 -0.026214539469266315 0.035795572189659126
leaf_weight=6.1122990846633902 28.462820962071419 28.872839018702507 38.17463157325983 39.21077686548233 64.834577694535255 137.28422293812037 75.869538471102715 12.979984968900679 10.683552518486975 14.762654833495615 9.7370603382587433 14.804001569747925 40.018416374921799 26.945264026522636 61.036131113767624 29.852141588926315 9.0152251273393684 12.59702907502651 84.296369150280952 12.387806400656698 4.8351823240518561 17.751363441348076 10.355470553040503 7.3118039369583121 35.958451852202415 39.543352961540222 5.7162131369113913 18.192188426852226 29.633117489516735 12.317611381411551
leaf_count=30 216 131 259 177 362 1452 319 128 70 124 52 71 241 129 374 123 37 52 354 60 20 77 42 32 157 166 23 73 204 79
internal_value=-0.00100485 0.0235387 -0.057573 0.0356161 0.0230072 -0.0751442 0.0559446 -0.0428349 -0.023032 -0.00867972 -0.00800664 0.0288672 -0.0137752 -0.0030562 -0.0192489 0.0321624 0.0380754 0.0617759 0.028846 -0.00522924 0.0240221 0.0400488 0.0406744 -0.0097536 0.0714171 0.0588579 0.0510375 0.042791 0.00441391 -0.00800707
internal_weight=939.552 655.254 284.299 473.84 292.448 188.439 181.392 51.1546 95.8598 67.3969 181.414 24.5411 156.873 116.854 89.909 227.613 188.402 52.8046 135.598 33.55 21.1622 102.048 40.2076 16.327 105.523 69.5641 63.4518 57.7355 52.6343 41.9507
internal_count=5634 3102 2532 2104 1336 1839 768 387 693 477 998 123 875 634 505 974 797 217 580 149 89 431 165 69 449 292 262 239 353 283
cat_boundaries=0 1 2 3 4 5 6 7 8 9 10 11
cat_threshold=1 1 1 2 2 2 4 4 1 1 4
is_linear=0
shrinkage=0.1


Tree=12
num_leaves=31
num_cat=10
split_feature=11 13 11 10 5 3 3 3 14 15 12 4 3 5 2 10 14 9 14 14 14 3 10 14 14 14 3 14 14 14
split_gain=109.808 21.7419 16.9463 13.6236 7.89849 9.26431 7.31761 6.98167 6.38501 4.70722 4.54733 4.71192 6.13173 4.43604 4.26396 4.18917 3.8144 3.78176 3.68201 4.63238 3.63024 3.50944 3.20423 2.93572 2.83315 2.8173 3.5284 2.72959 9.11798 4.43741
threshold=0 1 2 3 4 12.500000000000002 26.500000000000004 4.5000000000000009 1959.3500000000001 1.0000000180025095e-35 1.0000000180025095e-35 5 1.5000000000000002 6 1.0000000180025095e-35 7 4137.6250000000009 8 1162.3000000000002 2318.4500000000003 7786.2250000000013 32.500000000000007 9 1577.1000000000001 136.92500000000004 893.37500000000011 7.5000000000000009 3315.1250000000005 2993.5250000000001 2615.8500000000008
decision_type=1 1 1 1 1 2 2 2 2 2 2 1 2 1 2 1 2 1 2 2 2 2 1 2 2 2 2 2 2 2
left_child=1 6 13 18 5 25 10 -6 -8 14 -1 12 -12 20 -10 17 -16 -7 -4 -20 22 -17 -2 24 -14 26 -3 28 29 -21
right_child=2 4 3 -5 7 15 8 -9 9 -11 11 -13 23 -15 16 21 -18 -19 19 27 -22 -23 -24 -25 -26 -27 -28 -29 -30 -31
leaf_value=0.02501116633911328 -0.09787421960553333 0.060550067486140939 0.10271865365355329 -0.065856891035150633 0.0088147059010630514 -0.0081443589468109118 -0.075742016000375542 -0.031655275968789663 0.019051218168467901 0.053132458009959985 0.083874672313629509 0.07226761045207851 -0.045466602103202823 -0.093552581525218781 -0.11180597033894679 0.053486618461312065 0.00805841283046029 -0.083760312819450039 -0.076561696561223233 0.071535159384166672 -0.11157041191235149 -0.0031647465770862381 -0.019124733531459118 -0.041389367259845995 0.037473317419690726 0.12507989248382714 -0.0015014452627115848 -0.008486653484880001 0.18669668626962896 -0.077657322511141644
leaf_weight=62.282820358872414 6.6375713571906108 36.346747890114784 3.096469357609748 63.706934928894043 80.230242267251015 40.41023650765419 7.1741353720426551 90.952831164002419 37.366829179227352 31.040522873401642 24.150366485118866 92.314066797494888 4.4260413646697989 87.914082013070583 5.3885749578475934 19.71313863992691 5.2332301437854767 7.9084424674510947 8.8643801063299161 3.5718177109956724 8.2267178669571859 24.556552588939667 23.319313265383244 6.0123533159494391 59.279169246554375 4.8173654228448859 12.252956494688986 58.962696768343449 3.2453093379735938 4.5118462890386581
leaf_count=278 66 154 21 644 376 187 43 587 174 133 108 396 20 1019 26 83 26 44 65 24 90 117 184 25 255 20 50 363 24 32
internal_value=-0.000976256 0.0212955 -0.05434 -0.0311424 0.00182821 0.0189726 0.0385398 -0.0126878 0.0145871 0.022787 0.0484012 0.0562258 0.0404495 -0.0811916 0.00315867 -0.000160444 -0.0527503 -0.0205206 -0.00425497 -0.00843962 -0.0527316 0.0220619 -0.0365733 0.0254068 0.0317109 0.0521361 0.0449056 0.000151158 0.0451075 -0.0117357
internal_weight=923.914 651.857 272.057 145.959 317.189 146.005 334.668 171.183 86.2033 79.0292 248.465 186.182 93.8679 126.098 47.9886 92.5884 10.6218 48.3187 82.2525 79.1561 38.1836 44.2697 29.9569 69.7176 63.7052 53.4171 48.5997 70.2917 11.329 8.08366
internal_count=5634 3102 2532 1173 1618 655 1484 963 402 359 1082 804 408 1359 226 431 52 231 529 508 340 200 250 300 275 224 204 443 80 56
cat_boundaries=0 1 2 3 4 5 6 7 8 9 10
cat_threshold=1 4 4 4 2 1 2 1 1 1
is_linear=0
shrinkage=0.1


Tree=13
num_leaves=31
num_cat=13
split_feature=11 6 11 10 3 13 5 14 3 7 12 4 3 14 9 14 10 0 7 14 14 4 14 14 14 0 14 4 14 1
split_gain=92.4492 17.9264 15.8266 11.9724 8.86612 6.00454 4.57961 4.50913 4.83425 4.11815 4.03224 4.75595 3.9891 3.859 3.5666 3.36005 3.27406 4.69092 6.53344 3.1057 3.40497 3.02484 3.82649 2.98594 6.11046 3.21382 2.97693 4.00253 3.69352 4.17737
threshold=0 1 2 3 6.5000000000000009 4 5 4759.6500000000005 71.500000000000014 6 1.0000000180025095e-35 7 58.500000000000007 6841.4250000000002 8 926.67500000000007 9 1.0000000180025095e-35 10 1202.7750000000003 2201.0000000000005 11 1997.0000000000002 7555.2500000000009 7786.2250000000013 1.0000000180025095e-35 69.875000000000014 12 436.75000000000006 1.0000000180025095e-35
decision_type=1 1 1 1 2 1 1 2 2 1 2 1 2 2 1 2 1 2 1 2 2 1 2 2 2 2 2 1 2 2
left_child=1 4 7 -4 6 10 26 -2 9 12 -6 14 -9 -11 19 -13 -7 21 -19 -12 -21 22 -18 25 -25 -14 -1 28 29 -28
right_child=2 -3 3 -5 5 16 -8 8 -10 13 11 15 23 -15 -16 -17 17 18 -20 20 -22 -23 -24 24 -26 -27 27 -29 -30 -31
leaf_value=0.13236790672306395 -0.09517741374002775 -0.0076393013411760738 -0.0039356415067844071 -0.062561640882440539 -0.0013463158203953977 -0.012596184258941576 0.028559343828987595 0.053869115804595941 -0.099045138861387799 -0.015006030944586468 0.051286003395863769 0.092199891493907921 -0.10628813245890345 0.13175539083171595 -0.055570388946157949 0.042879793092412494 0.0055970562515995992 0.12966989947381793 -0.014476802395580702 -0.049777139568353619 0.043557247437356617 0.023479403098853258 -0.10725330782488247 0.12996255808911381 -0.11159313479116365 0.024712840875174794 0.048396621131232859 0.084367462252469494 0.11925144181758468 -0.017515690723513135
leaf_weight=5.5218820571899405 67.700198292732239 179.2343632131815 82.06358327716589 60.524719439446926 29.746140249073505 73.918864257633686 76.229972779750824 2.9225609600544002 17.026531249284744 7.0331483334302884 18.859913662075996 16.703030377626419 14.704088106751447 2.4040578752756119 6.7529457807540885 79.843765214085579 7.9614192545413989 7.8538505584001523 5.2437382191419601 8.8916887342929822 6.974645569920539 23.422865852713581 4.8259872943162918 2.0192211940884581 2.1754959747195244 2.146041512489318 44.432077422738075 34.185433968901634 5.6014862209558478 12.271003380417822
leaf_count=30 836 998 529 644 138 379 319 24 199 68 80 72 153 19 31 337 38 34 24 38 32 109 24 16 24 20 188 157 23 51
internal_value=-0.000956333 0.0192628 -0.0512465 -0.0288207 0.0295386 0.0187806 0.047102 -0.0783151 -0.0556786 -0.0335744 0.0302456 0.0392454 -0.0556066 0.0223803 0.0109255 0.0514124 0.000662871 0.0206743 0.0719595 0.0238564 -0.00874849 0.00212405 -0.0369928 -0.0708099 0.00468512 -0.0896038 0.0609583 0.0568717 0.0417853 0.0341327
internal_weight=909.195 648.475 260.72 142.588 469.241 290.999 178.242 118.131 50.4311 33.4046 167.772 138.026 23.9674 9.43721 41.4792 96.5468 123.227 49.3079 13.0976 34.7262 15.8663 36.2103 12.7874 21.0448 4.19472 16.8501 102.012 96.49 62.3046 56.7031
internal_count=5634 3102 2532 1173 2104 1336 768 1359 523 324 728 590 237 87 181 409 608 229 58 150 70 171 62 213 40 173 449 419 262 239
cat_boundaries=0 1 2 3 4 5 6 7 8 9 10 11 12 13
cat_threshold=1 1 4 4 4 2 4 1 1 1 1 1 1
is_linear=0
shrinkage=0.1


Tree=14
num_leaves=31
num_cat=11
split_feature=11 13 6 5 3 5 3 14 14 3 3 14 13 14 14 14 5 12 3 14 15 14 14 2 7 9 4 3 14 9
split_gain=77.776 15.2099 14.8247 6.62108 6.29732 6.04363 6.75212 5.65102 4.68132 4.9586 4.66251 10.4359 4.44424 4.62908 4.98125 6.44833 3.76305 3.58909 3.41457 3.99393 3.58849 3.75192 6.00188 3.72064 3.39285 4.77561 3.30643 3.0135 3.752 2.85874
threshold=0 1 2 3 1.5000000000000002 4 12.500000000000002 1254.2500000000002 937.55000000000007 5.5000000000000009 59.500000000000007 5498.5000000000009 5 1202.7750000000003 4975.3000000000002 5438.9250000000002 6 1.0000000180025095e-35 26.500000000000004 1959.3500000000001 1.0000000180025095e-35 4039.8500000000004 4594.8000000000002 1.0000000180025095e-35 7 8 9 51.500000000000007 4485.6750000000011 10
decision_type=1 1 1 1 2 1 2 2 2 2 2 2 1 2 2 2 1 2 2 2 2 2 2 2 1 1 1 2 2 1
left_child=1 4 12 10 -1 6 -3 8 9 -7 11 -4 13 -2 -15 -16 -6 -10 26 -20 21 23 -23 -21 -9 -26 -18 28 -8 -11
right_child=2 5 3 -5 16 7 27 24 17 29 -12 -13 -14 14 15 -17 18 -19 19 20 -22 22 -24 -25 25 -27 -28 -29 -30 -31
leaf_value=0.065439233600509961 0.085091371724209691 0.044762635442034404 -0.042344770151541693 -0.0795767653021896 -0.058964310317063597 0.0055935304047783629 0.0011831658720776643 -0.10230858355240216 -0.0090641786273565408 0.01628349985112065 -0.060642478252940495 0.12428174997804319 0.011098094623513875 -0.076437771621138725 0.10402487869670694 -0.035137441340723934 0.051454072941418197 0.12419761694058938 -0.066229844631163354 -0.0073460192083710579 0.04426942067217108 0.10058598298497222 -0.0045192534717635666 -0.10554967258971969 0.028697245195010303 -0.098630253967656928 0.024809777287580794 -0.040583039282818097 0.080675822433092986 -0.044516261342200721
leaf_weight=50.29394742846489 2.9192531406879416 52.440360933542252 13.629544988274576 113.26259296387434 4.9989286884665489 87.018618702888489 70.144311532378197 9.9155734926462173 3.4808099418878538 9.4540915191173553 28.248229287564754 5.1900322735309592 37.71381838619709 24.545076362788677 3.9635367840528515 20.821024142205715 80.34719130396843 4.8191092312335968 6.0677801445126525 16.902120828628544 31.346395179629326 7.6887011379003551 18.518597602844238 4.9990608617663375 7.183200791478157 4.9933215081691742 110.80530767142773 15.386564284563063 6.4866548329591742 42.490240275859833
leaf_count=229 22 224 96 1452 38 415 318 69 23 53 259 32 267 216 30 158 350 31 35 80 133 34 87 25 47 38 473 82 31 287
internal_value=-0.000923791 0.0174176 -0.0482464 -0.0664766 0.0318842 0.00106417 0.016124 -0.0117189 -0.00464373 -0.0090011 -0.0349529 0.00360722 -0.0157568 -0.0312786 -0.0445059 -0.0128827 0.0270248 0.0683104 0.0285784 0.0119698 0.0179418 0.000787237 0.0263165 -0.0297615 -0.0588809 -0.0235169 0.0360092 -0.000196973 0.00791206 -0.0334504
internal_weight=896.074 645.781 250.293 160.33 331.968 313.813 144.458 169.355 147.263 138.963 47.0678 18.8196 89.9627 52.2489 49.3296 24.7846 281.674 8.29992 276.675 85.5227 79.4549 48.1085 26.2073 21.9012 22.0921 12.1765 191.152 92.0175 76.631 51.9443
internal_count=5634 3102 2532 1839 1484 1618 655 963 809 755 387 128 693 426 404 188 1255 54 1217 394 359 226 121 105 154 85 823 431 349 340
cat_boundaries=0 1 2 3 4 5 6 7 8 9 10 11
cat_threshold=1 4 1 2 2 3 4 1 1 4 4
is_linear=0
shrinkage=0.1


Tree=15
num_leaves=31
num_cat=12
split_feature=11 11 9 10 14 10 13 14 5 14 3 3 4 0 7 12 14 15 13 9 3 6 14 0 14 14 0 14 14 12
split_gain=65.2092 14.5631 12.9648 9.89484 8.56345 5.95567 4.64263 4.61814 4.52354 4.42498 4.62832 3.62781 4.70806 4.19597 3.61887 3.58736 4.39307 3.4896 3.47291 4.71323 3.20813 2.8483 2.8147 3.10882 2.66357 3.39286 2.57504 2.57132 3.83385 2.51267
threshold=0 1 2 3 109.92500000000001 4 5 1202.7750000000003 6 4759.6500000000005 71.500000000000014 19.500000000000004 7 1.0000000180025095e-35 8 1.0000000180025095e-35 6415.1750000000002 1.0000000180025095e-35 9 10 58.500000000000007 11 7555.2500000000009 1.0000000180025095e-35 202.20000000000002 345.70000000000005 1.0000000180025095e-35 1162.3000000000002 2318.4500000000003 1.0000000180025095e-35
decision_type=1 1 1 1 2 1 1 2 1 2 2 2 1 2 1 2 2 2 1 1 2 1 2 2 2 2 2 2 2 2
left_child=2 9 4 27 8 6 -6 21 -1 -2 14 13 17 -4 15 -11 -17 -13 19 -5 -16 24 23 -22 -7 -26 -10 -3 -29 -8
right_child=1 3 11 18 5 7 29 -9 26 10 -12 12 -14 -15 20 16 -18 -19 -20 -21 22 -23 -24 -25 25 -27 -28 28 -30 -31
leaf_value=0.079071932931779124 -0.091417146932824711 0.08508664844904433 -0.0028025670232530876 0.10979468138078417 0.019972678416300876 0.12184683816469033 -0.032292583678929003 0.019424404156592936 0.023835369134884377 -0.057352724311210961 -0.095933721838774244 -0.030142340714097427 -0.060895754357401105 0.073300879956876633 0.044754995650073015 0.00033889147019629289 0.17643591571619754 0.038060643049418037 -0.061230867156000839 -0.029582053624204969 -0.10362819799677547 -0.0043967003174264227 0.0085007741990083593 0.027144680831739616 -0.0065790755561189245 0.065639826891872949 0.08711510465996497 -0.07000389392443826 0.0026666885811349812 0.0012808955997571012
leaf_weight=36.943126529455185 58.765152804553509 3.3063792139291754 106.85884752869606 4.0332032665610313 112.02793300896883 6.5246353596448889 32.338296711444855 106.29114075005054 43.65033270418644 3.4343679547309893 14.967531830072401 18.650931648910046 25.087153881788254 7.7716615200042716 3.0591227561235455 3.5185521468520164 2.3714658543467522 12.549620546400549 44.822448313236237 6.0895922854542732 13.007881425321104 7.3542751222848883 4.051664985716342 2.1131789088249198 7.7981947660446158 39.235702708363533 7.5417000353336325 8.1119339838623983 69.100272715091705 71.753174319863319
leaf_count=183 836 21 582 40 491 28 171 472 178 32 199 110 172 36 24 37 18 58 536 68 153 35 40 20 34 175 31 65 443 346
internal_value=-0.000892584 -0.0452792 0.0157428 -0.0235961 0.0242966 0.0178342 0.00687049 0.0320054 0.0524034 -0.0731764 -0.0501362 -0.00785198 -0.0286428 0.00235706 -0.0284139 0.0238765 0.0712399 -0.00270944 -0.0563132 0.0130539 -0.0503453 0.053959 -0.0655191 -0.0853526 0.0619719 0.053666 0.0331579 -0.00127013 -0.0049681 -0.0083475
internal_weight=883.129 240.753 642.377 135.464 471.459 383.323 216.119 167.204 88.1352 105.289 46.5238 170.918 56.2877 114.631 31.5562 9.32439 5.89002 31.2006 54.9452 10.1228 22.2318 60.9128 19.1727 15.1211 53.5585 47.0339 51.192 80.5186 77.2122 104.091
internal_count=5634 2532 3102 1173 2144 1752 1008 744 392 1359 523 958 340 618 324 87 55 168 644 108 237 272 213 173 237 209 209 529 508 517
cat_boundaries=0 1 2 3 4 5 6 7 8 9 10 11 12
cat_threshold=1 4 1 4 1 4 2 4 1 4 1 1
is_linear=0
shrinkage=0.1


Tree=16
num_leaves=31
num_cat=12
split_feature=11 11 5 10 3 3 0 14 3 3 14 4 3 3 3 3 14 14 10 7 13 5 10 14 4 12 4 14 14 14
split_gain=55.2708 13.2458 11.2333 8.87671 7.2827 5.65236 4.80372 4.31529 4.34724 4.0556 3.69876 3.55291 4.29113 4.32606 4.92897 5.6509 3.21864 3.13726 3.91214 3.0598 3.01192 4.13693 3.00062 3.42444 2.94854 2.83837 4.29079 3.15036 2.89609 4.22666
threshold=0 1 2 3 8.5000000000000018 5.5000000000000009 1.0000000180025095e-35 4759.6500000000005 71.500000000000014 54.500000000000007 804.67500000000007 4 22.500000000000004 14.500000000000002 16.500000000000004 21.500000000000004 6841.4250000000002 69.875000000000014 5 6 7 8 9 483.87500000000006 10 1.0000000180025095e-35 11 196.57500000000002 92.575000000000017 61.400000000000013
decision_type=1 1 1 1 2 2 2 2 2 2 2 1 2 2 2 2 2 2 1 1 1 1 1 2 1 2 1 2 2 2
left_child=2 7 4 -3 17 6 25 -2 19 10 -6 -7 13 22 -15 -16 -11 -1 24 -9 21 -5 23 -13 -19 -4 -27 28 29 -28
right_child=1 3 5 20 9 11 -8 8 -10 16 -12 12 -14 14 15 -17 -18 18 -20 -21 -22 -23 -24 -25 -26 26 27 -29 -30 -31
leaf_value=0.12468194780074025 -0.089306839009699254 -0.0011702681063082659 -0.007650871184083044 0.098952968632611882 -0.036276813038780976 0.0092046451531945083 0.077248984019536379 0.020831009630106759 -0.093971160504544488 -0.034752930711506307 0.022839705793482851 0.029927910800014071 -0.060647711487025024 0.091507113339057811 -0.045954215362871025 0.11153611660613037 0.054065424290233248 0.015513823087338313 0.066846324133019927 -0.047448750194752157 -0.05868132052731944 -0.029828419337718511 -0.060024782030171892 -0.047558362313395081 0.056663769132717194 0.079083093730124968 0.022034638392584485 -0.057762401433247693 0.070818210314408617 -0.078410521403130318
leaf_weight=4.7406073212623587 54.365914113819599 80.40900294482708 62.316791489720345 4.2119047790765762 11.124800696969031 37.051413252949715 10.619408190250395 9.4758543670177477 13.811732936650513 24.107138238847259 217.60312623530626 12.046311765909197 27.344594076275826 7.1549072414636639 10.388549640774725 2.9182995632290831 4.9112915247678748 53.848060250282288 40.991107434034348 21.351176515221596 42.64183022081852 6.1173316463828087 19.667223930358887 10.832049027085302 25.734522417187691 11.085912272334099 25.318348817527298 6.0099960416555396 8.715172275900839 5.0198942795395842
leaf_count=30 836 529 300 38 47 195 45 87 199 121 946 60 211 45 72 19 24 230 186 237 536 70 136 63 123 46 111 27 38 27
internal_value=-0.000910494 -0.0426781 0.014266 -0.0221089 0.0251107 -0.00193028 0.0128177 -0.0703891 -0.047349 0.0154965 0.0199644 -0.016873 -0.0275669 -0.0132101 0.0245738 -0.0114153 -0.0197207 0.0448854 0.041748 -0.0264604 -0.0538932 0.0115258 -0.0313817 -0.00675894 0.0288204 0.00704201 0.0233488 0.00963774 0.0200101 0.00541456
internal_weight=871.934 232.385 639.55 133.38 383.061 256.489 129.086 99.0047 44.6388 257.746 228.728 127.403 90.3519 63.0073 20.4618 13.3068 29.0184 125.314 120.574 30.827 52.9711 10.3292 42.5456 22.8784 79.5826 118.466 56.1493 45.0634 39.0534 30.3382
internal_count=5634 2532 3102 1173 1707 1395 594 1359 523 1138 993 801 606 395 136 91 145 569 539 324 644 108 259 123 353 549 249 203 176 138
cat_boundaries=0 1 2 3 4 5 6 7 8 9 10 11 12
cat_threshold=1 4 2 4 2 1 1 4 2 1 1 2
is_linear=0
shrinkage=0.1


Tree=17
num_leaves=31
num_cat=13
split_feature=11 5 6 11 12 3 4 10 7 4 2 14 14 3 10 10 3 14 14 14 3 3 14 13 3 4 14 7 14 14
split_gain=46.6873 12.4513 9.63683 8.93529 5.34716 4.92797 4.57215 4.44279 3.70388 3.23714 5.68869 4.89756 8.57569 4.18033 3.00301 2.6229 2.60485 6.34632 4.40091 4.75876 2.53435 2.56575 2.38281 4.06307 3.49613 3.11771 3.06107 2.78141 2.43849 2.30369
threshold=0 1 2 3 1.0000000180025095e-35 7.5000000000000009 4 5 6 7 1.0000000180025095e-35 2530.9000000000005 2275.6000000000004 22.500000000000004 8 9 16.500000000000004 788.57500000000016 1637.1250000000002 1254.2500000000002 60.500000000000007 52.500000000000007 33.650000000000013 10 43.500000000000007 11 592.70000000000016 12 405.8250000000001 2032.1250000000002
decision_type=1 1 1 1 2 2 1 1 1 1 2 2 2 2 1 1 2 2 2 2 2 2 2 1 2 1 2 1 2 2
left_child=2 -2 4 -3 8 6 -6 -8 -1 11 16 12 13 14 -7 -5 17 -11 19 -18 21 -20 -4 -24 26 27 28 -26 -25 -12
right_child=1 3 22 15 5 9 7 -9 -10 10 29 -13 -14 -15 -16 -17 18 -19 20 -21 -22 -23 23 24 25 -27 -28 -29 -30 -31
leaf_value=0.012410275653827126 -0.084710535158724648 -0.057482552769884544 0.018730009988068362 -0.035137020109649378 0.027919382908454377 0.034536267514143015 0.046133140466571042 0.11221194404640361 -0.028491216849787233 -0.0061274778493418374 -0.054978312854741675 -0.056082888702889515 0.14963872805428882 -0.07200798667398077 -0.017352513103854297 -0.0010540199681007701 0.035475670441774472 0.088676179203020095 0.033897929427970791 -0.087159055717101364 -0.016702727667180627 0.091546084609577971 -0.034625510740083652 -0.00086452512361252895 0.055319885530365979 -0.10657178766257509 0.024500114075183991 -0.04250493630923631 -0.067621117365488675 0.0073462674085170545
leaf_weight=87.655646204948425 48.977482337504625 64.029230341315269 29.879726856946945 31.403492115437984 78.527455121278763 26.060904800891876 31.499421805143356 15.029858365654944 29.621935531497002 10.287038922309874 9.9515859335660952 12.757466465234755 4.2202020883560172 6.7477048039436331 19.498228162527084 80.352714471518993 6.0587154477834684 22.516701340675354 61.093803599476814 6.6233021691441536 8.4807747751474363 8.837242625653742 42.214915990829468 27.268508337438107 4.0681719034910193 4.9677927196025857 50.59156496822834 10.178325623273849 6.845462553203105 14.678210921585558
leaf_count=404 792 852 134 359 347 121 148 74 148 47 47 65 18 38 83 529 31 100 257 31 38 41 285 162 21 32 262 59 43 66
internal_value=-0.000942826 -0.0401205 0.0128991 -0.0276967 0.0205113 0.0268159 0.0426377 0.0674779 0.00207939 0.0177318 0.0260581 -0.000117709 0.012513 0.00144942 0.0123291 -0.0106313 0.0347838 0.0589464 0.0260827 -0.0285715 0.0349222 0.041183 -0.00700112 -0.0122623 0.000140644 -0.0383571 0.00888994 -0.0145705 -0.0142602 -0.0178358
internal_weight=860.924 224.763 636.161 175.785 460.146 342.869 125.057 46.5293 117.278 217.812 148.527 69.2845 56.527 52.3068 45.5591 111.756 123.898 32.8037 91.0938 12.682 78.4118 69.931 176.014 146.135 103.92 19.2143 84.7055 14.2465 34.114 24.6298
internal_count=5634 2532 3102 1740 2104 1552 569 222 552 983 658 325 260 242 204 888 545 147 398 62 336 298 998 864 579 112 467 80 205 113
cat_boundaries=0 1 2 3 4 5 6 7 8 9 10 11 12 13
cat_threshold=1 4 1 4 1 1 1 1 1 1 8 4 1
is_linear=0
shrinkage=0.1


Tree=18
num_leaves=31
num_cat=13
split_feature=11 16 14 5 3 14 10 14 3 3 13 10 5 7 14 14 4 3 9 3 3 4 3 14 13 14 3 5 3 6
split_gain=39.8883 17.4599 6.22507 4.41845 7.11736 4.88681 4.39859 4.39174 4.33079 4.26604 4.39521 4.35714 3.82968 3.62569 3.58545 6.65569 3.88643 3.85852 3.45898 3.45402 4.32214 3.93017 3.82861 4.89439 3.4061 3.07842 4.96139 3.65306 2.63417 2.59921
threshold=0 1.0000000180025095e-35 109.92500000000001 1 22.500000000000004 74.800000000000026 2 4759.6500000000005 71.500000000000014 6.5000000000000009 3 4 5 6 2854.7500000000005 2615.8500000000008 7 45.500000000000007 8 44.500000000000007 38.500000000000007 9 33.500000000000007 1024.6750000000004 10 5297.1250000000009 64.500000000000014 11 29.500000000000004 12
decision_type=1 2 2 1 2 2 1 2 2 2 1 1 1 1 2 2 1 2 1 2 2 1 2 2 1 2 2 1 2 1
left_child=7 3 12 5 18 -2 24 -1 25 -7 11 -11 -3 -6 15 -8 29 -18 -5 20 22 -21 23 -12 -4 26 -9 -27 -25 -16
right_child=1 2 6 4 13 9 14 8 -10 10 19 -13 -14 -15 16 -17 17 -19 -20 21 -22 -23 -24 28 -26 27 -28 -29 -30 -31
leaf_value=-0.085382894113720825 -0.25961469554444982 0.068818202608796328 0.014990747513470471 0.077991994519979721 -0.020066310440212915 0.069177074459060947 0.030121098495490918 -0.019691044765290145 -0.090788808200368928 -0.0087907784983456104 -0.065753097781797706 -0.076288046621221975 0.025549072784071647 -0.068818848886984516 0.028535113596325795 0.14220735545615223 -0.12333589329735023 0.007181673573780527 -0.011059309861003031 -0.087153051373832335 0.13517632642561794 0.01088291627361658 -0.057350100556842282 0.043996145969565345 -0.00919880671040188 -0.10710001059006038 0.19348034340247916 -0.013404649870610892 0.13408776729554694 -0.029369253494880888
leaf_weight=47.209831707179546 0.71033976972103019 34.282473787665367 111.49182426184416 4.5505585074424744 25.352569818496704 9.1373121589422208 103.96775952726603 3.2017955631017712 12.134187795221804 43.226197183132172 3.4268963783979514 12.280909590423105 50.716047286987305 38.298012882471085 36.774335995316505 5.5821514874696723 4.3383361548185331 4.7397222816944122 105.16702415049076 4.9771388098597527 4.2833676412701598 22.921856470406059 4.4807210117578498 14.39541330188513 103.28353340923786 5.3537287451326838 1.6567567661404607 18.68159913644195 4.1901196837425223 9.8227581381797773
leaf_count=836 3 183 491 39 252 39 473 35 199 244 15 104 209 431 152 24 21 24 704 31 24 134 24 66 517 88 24 177 21 50
internal_value=-0.000932873 0.00643408 0.0185365 -0.0124888 -0.0227984 0.00192196 0.0130644 -0.0645852 -0.0406539 0.00342844 -0.001833 -0.0201028 0.0430008 -0.0494003 0.0253308 0.0358325 0.00466706 -0.0551917 -0.00736589 0.0161277 0.0419767 -0.00660655 0.0269084 0.0440595 0.00362788 -0.0195994 0.053 -0.0342747 0.0643074 0.0163288
internal_weight=850.635 762.397 464.999 297.398 173.368 124.03 380 88.2379 41.0281 123.32 114.183 55.5071 84.9985 63.6506 165.225 109.55 55.6752 9.07806 109.718 58.6755 30.7765 27.899 26.4932 22.0124 214.775 28.8939 4.85855 24.0353 18.5855 46.5971
internal_count=5634 4275 2144 2131 1426 705 1752 1359 523 702 663 348 392 683 744 497 247 45 743 315 150 165 126 102 1008 324 59 265 87 202
cat_boundaries=0 1 2 3 4 5 6 7 8 9 10 11 12 13
cat_threshold=4 2 1 3 4 2 4 4 1 1 4 1 1
is_linear=0
shrinkage=0.1


Tree=19
num_leaves=31
num_cat=9
split_feature=11 16 14 14 3 12 0 5 3 10 4 5 14 3 4 14 13 3 10 3 14 3 14 14 2 14 3 14 14 9
split_gain=34.318 14.2849 5.19337 4.23772 4.02233 3.66832 3.99942 3.65389 6.17133 3.62098 3.8113 3.39596 3.33985 3.72256 8.94054 3.318 2.83604 3.84918 2.95237 3.65614 7.29999 2.82404 6.67396 3.88964 3.42894 5.02824 3.0662 4.98233 3.79044 4.28429
threshold=0 1.0000000180025095e-35 109.92500000000001 4759.6500000000005 71.500000000000014 1.0000000180025095e-35 1.0000000180025095e-35 1 22.500000000000004 2 3 4 2241.7750000000005 45.500000000000007 5 136.92500000000004 6 60.500000000000007 7 33.500000000000007 1024.6750000000004 43.500000000000007 4096.9750000000013 4975.3000000000002 1.0000000180025095e-35 6670.5750000000007 59.500000000000007 5362.7750000000005 6841.4250000000002 8
decision_type=1 2 2 2 2 2 2 1 2 1 1 1 2 2 1 2 1 2 1 2 2 2 2 2 2 2 2 2 2 1
left_child=3 7 11 -1 -5 6 -4 21 -9 10 -8 -3 -10 14 -14 -7 17 -17 -18 20 -20 22 -2 -23 26 -26 27 -25 -28 -30
right_child=1 2 5 4 -6 15 9 8 12 -11 -12 -13 13 -15 -16 16 18 -19 19 -21 -22 23 -24 24 25 -27 28 -29 29 -31
leaf_value=-0.083191474601846727 0.0074262501138930197 0.064179496532179511 -0.016093885858631512 -0.018094226563721699 -0.088806108280623852 -0.065502294870673688 -0.059580934730662817 -0.0066620309899070255 -0.068336703096284521 0.084700811879968863 0.062471121216309877 0.023012832201546447 0.13540659969897514 -0.050531929801711166 -0.046920244030504349 0.027681620526547504 -0.016773329174196352 -0.035930449171151235 -0.024637284119869898 -0.031083349206459977 0.11551891769142067 -0.062105765443975995 0.13093035745997786 -0.034481067149074111 0.0016361370978038245 -0.12639842982333005 -0.058530295610568162 0.085642677146132953 -0.066615089520316029 0.067207788337380114
leaf_weight=43.785692770034075 55.728149048984051 33.145079836249352 73.40090823918581 28.472112633287907 11.212236870080231 4.7532383203506461 5.60671666264534 109.37004195153713 32.408745780587196 8.350347638130188 4.7059118896722794 50.676939621567726 4.3606071546673792 17.487874187529087 7.0176392123103142 207.56431113928556 42.742914080619812 9.9692503809928876 6.4752919673919704 7.1094750687479964 8.7214446216821653 12.896715395152567 4.7482307553291312 5.0252297073602703 8.6399825215339643 4.755687713623046 9.0846563503146189 11.034883216023443 3.3890172019600868 8.1344157531857473
leaf_count=836 281 183 358 324 199 20 26 743 396 37 24 209 40 187 60 928 210 46 30 34 39 85 25 29 59 30 64 62 22 48
internal_value=-0.000886306 0.00582106 0.0167642 -0.0617406 -0.0380728 0.0117873 -0.00558411 -0.011416 -0.0208963 0.0357505 -0.00388551 0.039291 -0.0463031 -0.0215654 0.0229548 0.0173532 0.0187469 0.0236779 -0.0011988 0.0281075 0.0557987 0.00168988 0.017123 -0.0131343 -0.000519033 -0.0438183 0.0152991 0.0480558 -0.0102286 0.0278508
internal_weight=840.774 757.304 463.222 83.47 39.6843 379.4 92.0639 294.082 170.645 18.663 10.3126 83.822 61.2749 28.8661 11.3782 287.336 282.583 217.534 65.0491 22.3062 15.1967 123.437 60.4764 62.9606 50.0639 13.3957 36.6682 16.0601 20.6081 11.5234
internal_count=5634 4275 2144 1359 523 1752 445 2131 1426 87 50 392 683 287 100 1307 1287 974 313 103 69 705 306 399 314 89 225 91 134 70
cat_boundaries=0 1 2 3 4 5 6 7 8 9
cat_threshold=4 2 1 1 2 1 5 1 1
is_linear=0
shrinkage=0.1


Tree=20
num_leaves=31
num_cat=11
split_feature=11 6 12 14 14 14 4 10 3 14 5 14 13 6 14 0 7 3 14 8 14 14 14 7 3 12 14 14 0 8
split_gain=29.4088 11.8716 5.32027 4.41169 4.68151 4.08646 3.7849 3.88537 3.73852 3.70182 3.70987 3.25725 5.89471 4.34989 4.59669 3.27174 4.9171 3.21395 5.07436 2.74801 5.84715 2.67386 2.70867 2.67191 3.06875 2.93878 3.16051 2.86238 3.20812 2.65354
threshold=0 1 1.0000000180025095e-35 1202.7750000000003 1126.5500000000002 4759.6500000000005 2 3 71.500000000000014 345.70000000000005 4 33.650000000000013 5 6 6587.1500000000005 1.0000000180025095e-35 7 31.500000000000004 1959.3500000000001 8 861.35000000000014 416.10000000000008 861.35000000000014 9 58.500000000000007 1.0000000180025095e-35 6415.1750000000002 7555.2500000000009 1.0000000180025095e-35 10
decision_type=1 1 2 2 2 2 1 1 2 2 1 2 1 1 2 2 1 2 2 1 2 2 2 1 2 2 2 2 2 1
left_child=5 2 9 4 6 -1 7 -4 23 -2 -11 -3 13 14 -13 17 -17 18 29 20 -8 -21 -23 24 -7 -25 -27 28 -26 -14
right_child=1 11 3 -5 -6 8 19 -9 -10 10 -12 12 15 -15 -16 16 -18 -19 -20 21 -22 22 -24 25 27 26 -28 -29 -30 -31
leaf_value=-0.080955250136828749 0.016892128058838669 0.017391091412603275 0.030550423698908698 0.0088587018630180668 0.1079058475990492 0.057594538543103604 0.018620814748182474 0.08837637064626977 -0.086793346652961817 -0.0010784384452862453 -0.046072840859123464 0.013905592840596559 0.020058092176121096 -0.050965384659308013 -0.076109240446942172 0.081027904603473783 -0.05448137662891455 -0.072642917878196697 0.094471290520178691 0.086031184594279456 -0.062837800022502652 -0.0082654181561110859 0.080032596024414537 -0.05007253689094452 -0.099436024285252458 0.0060858060439007503 0.15363770876373428 0.022802673767271551 0.040095195679053557 -0.04538791401667349
leaf_weight=40.658092811703682 53.64339192211628 30.155050173401833 34.206775404512882 188.74155555665493 7.4801076501607886 2.863330855965617 98.653138011693954 17.596843168139458 10.368665207177399 51.592090338468552 28.419047124683857 86.823012374341488 7.0377864241600037 14.444365054368971 6.0696457587182513 5.4962094724178296 5.2218436785042286 26.490517433732748 3.0628860220313063 10.650226630270483 9.6762090399861318 10.452943123877047 5.2037315592169753 3.1374770030379313 10.522437777370214 3.3704196587204933 2.54996208101511 3.6774975582957259 1.9537764787673957 51.749868091195822
leaf_count=836 235 138 169 945 36 24 453 95 199 254 201 530 43 163 40 29 43 273 18 47 46 48 25 32 153 37 18 40 20 444
internal_value=-0.000850767 0.00524346 0.0137431 0.0197423 0.0303353 -0.0588539 0.0272231 0.050193 -0.0354794 -0.00343299 -0.0170599 -0.0133086 -0.0177939 7.84638e-05 0.00802399 -0.0337596 0.0150077 -0.0434979 -0.0310151 0.018385 0.0113448 0.0473762 0.0210818 -0.016528 -0.0378189 0.0281723 0.0696377 -0.0547314 -0.0775854 -0.037553
internal_weight=831.969 752.867 516.316 382.662 193.92 79.1017 186.44 51.8036 38.4436 133.655 80.0111 236.551 206.396 107.337 92.8927 99.0591 10.7181 88.3411 61.8505 134.636 108.329 26.3069 15.6567 28.0749 19.017 9.05786 5.92038 16.1537 12.4762 58.7877
internal_count=5634 4275 2554 1864 919 1359 883 264 523 690 455 1721 1583 733 570 850 72 778 505 619 499 120 73 324 237 87 55 213 173 487
cat_boundaries=0 1 2 3 4 5 6 7 8 9 10 11
cat_threshold=4 1 4 1 2 6 4 1 1 4 4
is_linear=0
shrinkage=0.1


Tree=21
num_leaves=31
num_cat=7
split_feature=11 13 6 3 14 10 11 14 3 3 0 3 15 14 14 5 6 3 3 14 3 3 1 3 14 2 3 14 14 3
split_gain=25.267 10.507 4.48373 4.86066 4.1821 3.89313 4.78858 3.86831 3.42785 3.36632 3.09052 3.00601 2.96551 2.95284 3.75814 2.95255 4.16073 3.09454 3.3446 3.09012 2.88699 2.81286 4.38764 2.79023 3.25904 4.02989 2.76183 3.58818 2.54792 3.72729
threshold=0 1 2 50.500000000000007 33.650000000000013 3 4 4759.6500000000005 71.500000000000014 66.500000000000014 1.0000000180025095e-35 58.500000000000007 1.0000000180025095e-35 1504.5500000000002 1043.575 5 6 26.500000000000004 35.500000000000007 416.10000000000008 46.500000000000007 22.500000000000004 1.0000000180025095e-35 69.500000000000014 5071.4750000000013 1.0000000180025095e-35 52.500000000000007 81.825000000000017 5297.1250000000009 64.500000000000014
decision_type=1 1 1 2 2 1 1 2 2 2 2 2 2 2 2 1 1 2 2 2 2 2 2 2 2 2 2 2 2 2
left_child=7 12 3 20 -4 9 10 -1 28 11 13 -6 15 14 -7 17 21 19 -19 -2 -3 -17 -23 24 -5 -26 27 -18 29 -9
right_child=1 2 4 23 5 6 -8 8 -10 -11 -12 -13 -14 -15 -16 16 26 18 -20 -21 -22 22 -24 -25 25 -27 -28 -29 -30 -31
leaf_value=-0.078668594918088891 -0.0075775725295486596 0.0056433067252452162 0.016267320699867444 -0.068360411946455299 -0.00064541544063068579 -0.028528940551126709 -0.075343800670035779 -0.017026489413514524 -0.084740887350187075 0.080326012674517958 0.042263770507862203 -0.083397429076191132 0.025612595695617909 -0.077228114675936765 0.075574844940214658 0.047626642228994175 0.013698575421378046 -0.048808441730030676 0.011931412242850204 0.04765947430735494 0.067366276496597668 -0.097595323578983539 0.045765244163211573 -0.12626580825414616 0.02926013201905452 -0.081485556019802008 0.046287589602170824 -0.073973217147455583 -0.029562640171072019 0.16255045050231803
leaf_weight=37.804316595196724 13.559842139482496 188.0411334335804 27.316299937665462 10.627420917153364 33.950109802186489 45.777254566550255 25.251740597188473 3.1148499958217171 9.5977404341101629 4.464464806020259 6.3251964226365081 5.0415553525090209 195.28270168602467 11.332251757383345 3.7518957853317252 13.530112117528917 6.3367176577448907 11.155123122036455 48.397897608578205 40.014102049171925 7.8961455747485152 4.25538721680641 4.2841966971755028 2.9869240522384635 13.235105924308302 4.3709336668252936 3.3292260393500319 17.729690924286842 22.677307013422251 1.8377626612782476
leaf_count=836 63 958 124 82 218 337 420 35 199 33 36 36 904 77 24 67 31 51 249 172 45 36 40 21 74 28 23 126 265 24
internal_value=-0.000814034 0.00473357 -0.00662305 0.00229162 -0.0194363 -0.0266132 -0.0382182 -0.0561366 -0.0332556 -0.00192728 -0.0242648 -0.0113451 0.016836 -0.031179 -0.0206429 0.00733018 -0.0130488 0.016241 0.000553978 0.0336787 0.0081307 0.0192642 -0.0256732 -0.0343541 -0.0246304 0.00176604 -0.0390798 -0.0508891 -0.0153713 0.049609
internal_weight=823.275 748.243 390.368 227.158 163.211 135.894 92.4383 75.032 37.2277 43.4561 67.1866 38.9917 357.875 60.8614 49.5292 162.592 49.4653 113.127 59.553 53.5739 195.937 22.0697 8.53958 31.2204 28.2335 17.606 27.3956 24.0664 27.6299 4.95261
internal_count=5634 4275 2513 1208 1305 1181 894 1359 523 287 474 254 1762 438 361 858 323 535 300 235 1003 143 76 205 184 102 180 157 324 59
cat_boundaries=0 1 2 3 4 5 6 7
cat_threshold=4 4 1 4 1 2 4
is_linear=0
shrinkage=0.1


Tree=22
num_leaves=31
num_cat=7
split_feature=11 13 3 10 14 16 14 14 14 3 14 14 3 14 3 14 12 14 7 16 4 6 3 3 3 14 14 14 10 14
split_gain=21.5863 8.56313 4.07598 6.33763 6.05471 4.14101 4.10589 3.68211 3.43391 3.55136 3.97843 3.23054 3.15374 3.14087 2.86922 2.68174 2.34564 4.88042 4.21883 2.76699 2.72452 4.24041 4.8674 6.01238 5.72287 3.87809 3.19154 5.63793 3.64661 2.58101
threshold=0 1 12.500000000000002 2 913.00000000000011 1.0000000180025095e-35 1453.0250000000003 4759.6500000000005 1741.6250000000002 22.500000000000004 2318.4500000000003 3648.5750000000003 71.500000000000014 678.90000000000009 1.5000000000000002 2530.9000000000005 1.0000000180025095e-35 5362.7750000000005 3 1.0000000180025095e-35 4 5 59.500000000000007 16.500000000000004 26.500000000000004 4370.5000000000009 926.67500000000007 1058.4250000000002 6 804.67500000000007
decision_type=1 1 2 1 2 2 2 2 2 2 2 2 2 2 2 2 2 2 1 2 1 1 2 2 2 2 2 2 1 2
left_child=7 14 4 6 -3 11 -4 -1 -8 -10 -11 -5 -9 -7 -2 -12 17 18 19 -16 25 26 23 -23 -25 -18 28 -28 -22 -20
right_child=1 2 3 5 -6 13 8 12 9 10 15 -13 -14 -15 16 -17 20 -19 29 -21 21 22 -24 24 -26 -27 27 -29 -30 -31
leaf_value=-0.076327777412141778 0.039288847010061162 0.0023619275809064646 0.066145881437890075 -0.041574277766797715 0.12258840239175216 -0.10196255584913266 -0.087321576198144804 -0.014087301601685871 0.083498454898555952 -0.082801470572347546 0.068414514756271888 -0.11102182359156243 -0.082640777610622287 -0.0070798859511786638 -0.035732718599320389 -0.0032819634515617716 0.0077845762519732136 0.093049398498961419 -0.087200590495193422 0.020718637888423787 0.03084315311573815 -0.064878816857317848 -0.10417024438530767 0.15148135957428641 0.009530933288575941 -0.088333874265885237 -0.10783849497787268 0.028051208017557089 0.098153608585576591 -0.017700133763654667
leaf_weight=35.202813275158405 44.752477534115314 165.67944140359759 9.2208657413721067 46.704306025058031 4.2974829152226439 3.7279495596885672 4.6736776605248442 27.337138220667839 4.886580064892768 5.9825750812888137 5.6094125732779494 7.8197508826851836 8.8939657844603044 54.384119533002377 11.530971515923737 74.576594956219196 82.130068458616734 4.8989028073847285 9.0766348689794558 35.152293384075165 18.784280836582184 7.5087374746799531 4.6117802634835234 3.7620347887277594 11.589978851377962 4.4237312301993361 3.1623945683240882 88.371531389653683 14.082879826426504 12.991238474845884
leaf_count=836 230 885 53 573 20 22 29 324 21 46 30 101 199 289 68 444 383 30 57 152 89 34 32 17 70 25 15 402 72 86
internal_value=-0.000785204 0.00425377 -0.00604531 -0.0152654 0.00540158 -0.0317394 0.00241518 -0.0532949 -0.00372353 0.000567386 -0.0041356 -0.0515343 -0.0309157 -0.0131667 0.0151838 0.00173356 0.0122136 -0.0033852 -0.0102567 0.0067749 0.0170321 0.025102 -0.0104551 0.00845044 0.0443161 0.002872 0.0329543 0.0233564 0.0596843 -0.046286
internal_weight=815.827 744.393 387.563 217.586 169.977 112.636 104.95 71.4339 95.7288 91.0552 86.1686 54.5241 36.2311 58.1121 356.83 80.186 312.077 73.65 68.7511 46.6833 238.427 151.874 27.4725 22.8608 15.352 86.5538 124.401 91.5339 32.8672 22.0679
internal_count=5634 4275 2513 1608 905 985 623 1359 570 541 520 674 523 311 1762 474 1532 393 363 220 1139 731 153 121 87 408 578 417 161 143
cat_boundaries=0 1 2 3 4 5 6 7
cat_threshold=4 4 4 1 1 1 1
is_linear=0
shrinkage=0.1


Tree=23
num_leaves=31
num_cat=10
split_feature=11 16 14 5 14 14 6 5 0 10 3 14 6 14 12 4 13 3 14 14 10 14 3 2 14 4 15 2 1 14
split_gain=18.3983 7.19701 3.6757 3.56014 3.58869 3.96796 4.14704 2.87686 2.23406 2.22441 2.5419 2.50363 3.24538 2.68658 3.2568 2.5186 2.08203 5.40501 6.22651 5.9583 5.79857 3.46856 2.52803 2.53244 3.07378 2.40641 2.72957 4.69873 4.63814 2.27595
threshold=0 1.0000000180025095e-35 109.92500000000001 1 7786.2250000000013 7261.8750000000009 2 3 1.0000000180025095e-35 4 10.500000000000002 819.47500000000002 5 202.20000000000002 1.0000000180025095e-35 6 7 19.500000000000004 2318.4500000000003 2615.8500000000008 8 535.95000000000016 12.500000000000002 1.0000000180025095e-35 1094.4250000000002 9 1.0000000180025095e-35 1.0000000180025095e-35 1.0000000180025095e-35 1886.7000000000003
decision_type=1 2 2 1 2 2 1 1 2 1 2 2 1 2 2 1 1 2 2 2 1 2 2 2 2 1 2 2 2 2
left_child=3 16 7 4 5 8 -7 -3 -1 -4 11 12 13 -11 -15 -16 25 21 29 -20 -21 -18 -23 24 -24 26 27 28 -2 -19
right_child=1 2 9 -5 -6 6 -8 -9 -10 10 -12 -13 -14 14 15 -17 17 18 19 20 -22 22 23 -25 -26 -27 -28 -29 -30 -31
leaf_value=-0.014246402478505641 -0.023926089874031699 0.054976678738502621 0.00070428092746613726 -0.0687202001981852 -0.10593840264123666 0.16163193122385905 -0.011931242678053233 0.016171822277980485 -0.11457904532558832 0.09848725693502948 0.0087819995322551466 0.093407425390633458 -0.053745835151006685 -0.043348490837336863 0.092344731699127991 0.017432791683630263 -0.0071869840849245158 -0.054115074839851431 0.084782119819016066 -0.0074737993537842265 -0.081942332171634921 0.084058244470853805 0.11635332924909716 -0.053990929971546503 -0.017430681346233153 -0.01169884302882275 0.052607742440468445 -0.064847111047385483 0.071655116638371971 -0.12039203630641614
leaf_weight=14.075013779103765 9.5482246354222333 30.815848127007484 212.54183338582516 41.610495828092098 4.2585271000862113 2.5397336632013312 3.0060683414340019 50.272688999772072 2.6346937008202067 5.9521790295839336 119.9024176299572 6.6831746101379386 4.3957649022340766 5.621107459068301 6.7835222035646439 13.262894481420519 74.114049438387156 24.542219642549757 5.5860324278473845 50.345136687159538 13.197169046849011 7.8859674893319633 3.2809238359332067 3.9662799052894115 3.6036883369088173 45.554805658757687 16.936860479414463 7.6873935014009467 10.84141056612134 6.567867834120988
leaf_count=157 62 183 1008 1019 90 27 39 209 27 28 540 32 20 25 41 58 510 342 44 331 173 42 23 31 19 283 82 52 69 68
internal_value=-0.000742946 0.00383581 0.0116125 -0.0504721 -0.0218339 -0.00574074 0.0675531 0.0309187 -0.0300663 0.00743945 0.0162432 0.0371952 0.0267642 0.0379567 0.0239199 0.0427823 -0.00867218 -0.0141213 -0.0309552 -0.0142356 -0.0229402 0.00253108 0.0409711 0.00965713 0.0463253 0.0040565 0.0209023 0.00177674 0.0268956 -0.0681073
internal_weight=808.014 739.889 456.231 68.1245 26.514 22.2555 5.5458 81.0885 16.7097 375.143 162.601 42.6986 36.0155 31.6197 25.6675 20.0464 283.658 193.089 100.238 69.1283 63.5423 92.8509 18.7369 10.8509 6.88461 90.5687 45.0139 28.077 20.3896 31.1101
internal_count=5634 4275 2144 1359 340 250 66 392 184 1752 744 204 172 152 124 99 2131 1583 958 548 504 625 115 73 42 548 265 183 131 410
cat_boundaries=0 1 2 3 4 5 6 7 8 9 10
cat_threshold=4 2 1 2 1 1 4 4 4 4
is_linear=0
shrinkage=0.1


Tree=24
num_leaves=31
num_cat=10
split_feature=11 12 3 13 14 14 10 16 14 14 3 3 14 14 14 14 5 4 0 14 10 4 14 8 3 4 14 14 14 9
split_gain=15.6834 6.41532 5.05604 3.94876 5.65747 3.43331 3.52114 3.9443 3.38607 3.23895 3.52523 3.53562 3.13666 3.09385 3.00275 3.08082 2.99432 4.22305 2.96656 3.43496 6.25195 3.04853 2.69134 3.94626 4.54181 2.99004 2.59964 6.20359 5.37806 3.9567
threshold=0 1.0000000180025095e-35 7.5000000000000009 1 637.47500000000002 1237.4750000000001 2 1.0000000180025095e-35 4759.6500000000005 893.37500000000011 10.500000000000002 15.500000000000002 483.87500000000006 4871.6250000000009 2241.7750000000005 3512.3250000000003 3 4 1.0000000180025095e-35 4730.3250000000007 5 6 436.75000000000006 7 3.5000000000000004 8 4485.6750000000011 4039.8500000000004 6345.1250000000009 9
decision_type=1 2 2 1 2 2 1 2 2 2 2 2 2 2 2 2 1 1 2 2 1 1 2 1 2 1 2 2 2 1
left_child=8 18 22 12 -5 9 26 -8 -1 10 -6 -12 -4 -10 -9 -16 -14 -18 -2 20 -20 -22 23 -3 25 -25 27 29 -28 -7
right_child=1 2 3 4 5 6 7 14 13 -11 11 -13 16 -15 15 -17 17 -19 19 -21 21 -23 -24 24 -26 -27 28 -29 -30 -31
leaf_value=-0.071745841595343404 -0.014532991140927449 0.069092198400280247 0.081234109194180032 -0.063464297903445821 0.045032984965786629 0.024903528635144768 -0.076744719798560304 -0.04822729370581337 0.12703831239841842 0.056859425911411791 -0.13013464808637948 0.01015057029558719 0.017194884642330089 -0.03198415583380676 0.054320425589145155 -0.028084861790677637 -0.067945117657237569 0.01015205349996498 0.097075118322110243 -0.05703297662813947 -0.037048545534863191 0.047708153864486062 0.062302007676573734 0.014109716216345889 -0.020256180114906538 0.055362125206152614 0.054234273795424115 -0.12364220980743718 -0.029312072353766618 -0.043826669857435337
leaf_weight=30.888160783797503 204.7275951616466 14.798275411128998 6.6464107632637015 16.625084262341261 6.4887927025556582 23.582918368279934 13.585479594767092 13.38824735581875 1.2705779820680607 17.074529457837343 3.4268061593174934 3.7764062285423279 146.05787608772516 32.97507268935442 9.3169407770037669 8.8429189249873144 10.680709972977638 19.685399383306503 9.6070113554596901 5.1321895867586127 10.608158748596907 7.0732692256569871 17.412448644638062 63.162820845842361 28.702402502298355 24.341396197676659 21.539042487740517 4.5238273441791526 11.996275417506693 12.989592619240282
leaf_count=836 1407 71 36 133 28 120 172 68 20 104 17 35 665 503 47 46 70 117 47 31 59 41 84 303 141 127 119 27 73 87
internal_value=-0.000705634 0.00345777 0.00989718 0.00334211 -0.00764865 -0.00199234 -0.00964683 -0.0316958 -0.0477381 0.0278044 -0.00842856 -0.0565877 0.0130808 -0.0260841 -0.0122965 0.0141933 0.0112547 -0.0173172 -0.0100822 0.0180235 0.0321395 -0.00314252 0.0253655 0.0204561 0.0142625 0.0255851 0.00368731 -0.0131722 0.024348 0.000492372
internal_weight=800.927 735.793 498.645 350.227 167.157 150.532 119.765 45.1336 65.1338 30.7665 13.692 7.20321 183.07 34.2457 31.5481 18.1599 176.424 30.3661 237.148 32.4206 27.2884 17.6814 148.417 131.005 116.207 87.5042 74.6317 41.0963 33.5353 36.5725
internal_count=5634 4275 2690 1964 1076 943 759 333 1359 184 80 52 888 523 161 93 852 187 1585 178 147 100 726 642 571 430 426 234 192 207
cat_boundaries=0 1 2 3 4 5 6 7 8 9 10
cat_threshold=4 4 4 2 1 4 1 4 1 1
is_linear=0
shrinkage=0.1


Tree=25
num_leaves=31
num_cat=13
split_feature=11 12 3 5 14 14 13 14 14 10 16 7 4 3 14 14 3 11 7 7 3 3 14 14 10 9 4 3 8 1
split_gain=13.2979 5.21793 4.16007 3.23066 3.39863 5.55773 3.22559 4.77921 2.7851 2.93044 3.5404 2.71838 2.69117 4.21048 2.56904 3.03733 2.63357 2.55064 6.31195 2.61456 4.32411 4.03951 4.12127 2.47252 2.45212 4.20178 2.91537 2.44309 2.53998 6.03002
threshold=0 1.0000000180025095e-35 7.5000000000000009 1 7786.2250000000013 7675.9750000000013 2 637.47500000000002 1237.4750000000001 3 1.0000000180025095e-35 4 5 41.500000000000007 893.37500000000011 757.5250000000002 10.500000000000002 6 7 8 36.500000000000007 20.500000000000004 1386.325 483.87500000000006 9 10 11 50.500000000000007 12 1.0000000180025095e-35
decision_type=1 2 2 1 2 2 1 2 2 1 2 1 1 2 2 2 2 1 1 1 2 2 2 2 1 1 1 2 1 2
left_child=3 17 24 4 5 -1 23 -8 14 -10 -11 -12 -13 -14 15 -9 -17 19 -19 20 21 22 -2 -4 25 26 -3 28 29 -21
right_child=1 2 6 -5 -6 -7 7 8 9 10 11 12 13 -15 -16 16 -18 18 -20 27 -22 -23 -24 -25 -26 -27 -28 -29 -30 -31
leaf_value=-0.017391148054894792 0.0030346559193548078 0.035742152396211646 0.071730252874484743 -0.063789033908111178 -0.10518353890225283 0.16717763896710405 -0.05929695811978053 0.062973469461802739 0.0032679936066652114 -0.073561405712412972 -0.039568779819281683 0.084909701608941068 -0.066707411109730982 0.058871556270948713 0.05040569909124526 0.021397546445198687 -0.085732384687108198 0.012308328963615904 -0.06401589131839637 -0.059091415488155122 0.068907120655173321 -0.045238337070429492 0.097123005937687801 0.010135298808908323 0.015855656291741748 -0.023301496409387536 0.1012213911894639 -0.088767155298042577 -0.02047699843932746 0.10151611726571524
leaf_weight=19.847454469650991 79.364059217274189 15.969065606594086 6.7673669382929793 37.05915218219161 3.7637152262032023 1.7775973603129376 16.045216590166092 4.1944644264876869 74.575341209769249 12.797442875802515 16.248342789709568 4.4270414263010043 5.6887531504034978 5.0312370359897614 17.320641059428453 4.0405033975839597 5.3108217902481556 19.175651501864195 24.911628980189562 4.0116105452179909 9.8971703201532346 16.730462647974491 4.9455232918262473 176.18153573945165 112.50801112875342 6.9507247209548941 11.841999426484108 4.5778804197907439 66.763312950730324 5.6023536175489426
leaf_count=231 367 76 36 1019 90 19 133 28 426 172 81 25 28 27 104 17 35 187 359 21 54 93 22 852 547 32 71 28 422 32
internal_value=-0.000668139 0.00311134 0.008936 -0.044963 -0.0174832 -0.00221944 0.00298309 -0.00700755 -0.00186891 -0.00882391 -0.029229 -0.0111581 0.0193182 -0.00776915 0.0248926 -0.00773027 -0.0394439 -0.00912886 -0.0308189 -0.00414559 0.00582576 -0.000353242 0.00855379 0.0117704 0.0230282 0.0462424 0.0636233 -0.0178099 -0.0135568 0.0344996
internal_weight=794.326 731.878 495.899 62.4479 25.3888 21.6251 348.629 165.68 149.635 118.768 44.1928 31.3954 15.147 10.72 30.8664 13.5458 9.35133 235.98 44.0873 191.892 110.937 101.04 84.3096 182.949 147.27 34.7618 27.8111 80.9552 76.3773 9.61396
internal_count=5634 4275 2690 1359 340 250 1964 1076 943 759 333 161 80 55 184 80 52 1585 546 1039 536 482 389 888 726 179 147 503 475 53
cat_boundaries=0 1 2 3 4 5 6 7 8 9 10 11 12 13
cat_threshold=4 2 4 4 1 1 1 4 1 4 1 1 4
is_linear=0
shrinkage=0.1


Tree=26
num_leaves=31
num_cat=5
split_feature=11 6 14 3 12 14 7 3 14 14 14 0 5 14 3 3 14 14 14 3 4 14 14 14 3 14 14 3 2 3
split_gain=11.2784 4.53672 3.0516 2.95723 2.41681 2.48072 2.41655 2.77837 2.70657 2.70406 2.53676 3.36661 2.39992 2.29527 4.19746 2.12281 3.32728 2.58323 2.16488 2.69977 2.00169 4.09906 11.9794 4.68875 3.83051 4.00499 3.76904 3.19117 2.52295 2.72713
threshold=0 1 4759.6500000000005 71.500000000000014 1.0000000180025095e-35 345.70000000000005 2 58.500000000000007 6841.4250000000002 5498.5000000000009 7555.2500000000009 1.0000000180025095e-35 3 2530.9000000000005 36.500000000000007 59.500000000000007 7468.8000000000011 5567.5000000000009 6897.2750000000005 64.500000000000014 4 2530.9000000000005 2275.6000000000004 1577.1000000000001 3.5000000000000004 290.97500000000008 1420.5750000000003 17.500000000000004 1.0000000180025095e-35 16.500000000000004
decision_type=1 1 2 2 2 2 1 2 2 2 2 2 1 2 2 2 2 2 2 2 1 2 2 2 2 2 2 2 2 2
left_child=2 4 -1 6 5 -2 7 -4 9 -8 11 -9 -7 14 -14 17 18 -3 19 -17 21 22 23 26 -22 -26 27 -6 29 -27
right_child=1 15 3 -5 20 12 8 10 -10 -11 -12 -13 13 -15 -16 16 -18 -19 -20 -21 24 -23 -24 -25 25 28 -28 -29 -30 -31
leaf_value=-0.06699795563682924 0.013020121798856928 -0.0081464346798358588 0.064017783456338004 -0.077390072752584971 0.009172156707790962 -0.0023259375656887855 0.078189066535558807 -0.09594839834739731 0.12710134669655079 -0.056366998107586823 0.028065859311206271 0.05437677907541371 -0.046348877247953973 -0.11433341894020262 0.070353491810902141 -0.084714916123170989 0.062213366737981203 0.054234851979315338 -0.12354937914153048 0.007771779618400078 0.05530006032078294 -0.038081305528290414 0.15436015585375093 -0.060102511516580442 -0.070379873761581932 0.04381688222066505 0.095170782434663717 -0.074571983369494235 -0.0081447848578805361 0.013563177748806943
leaf_weight=27.304145585745573 53.188262276351452 198.47119737416506 2.7713856548070934 7.3796733077615491 108.66233368963003 51.15069081261754 2.6473014652729052 8.6927384883165324 2.4328495636582375 3.4267806224524975 3.5061837397515765 1.7979443594813354 19.444553181529052 3.5389303751289836 3.6624586246907702 6.2147135473787838 2.6911975592374793 6.8679720163345328 3.8328724093735209 6.4133293069899082 24.849685877561569 20.580790393054485 5.5010149031877509 10.580965999513863 5.5179606378078452 40.603330858051777 4.9083056002855292 4.7491880655288687 35.025279171764851 111.93483114615083
leaf_count=836 235 1498 24 199 503 254 33 153 19 35 40 20 134 36 31 67 18 37 27 74 137 124 26 57 25 207 23 31 189 542
internal_value=-0.000637585 0.00279412 -0.0423264 -0.0216975 0.00806177 -0.00362362 -0.00543675 -0.0274606 0.037975 0.00227733 -0.0455733 -0.0701849 -0.0150027 -0.0393375 -0.0278516 -0.00902977 -0.0408705 -0.00605997 -0.0577237 -0.0377442 0.0121662 0.00347839 0.00984238 0.00367489 0.0183446 0.0135884 0.0093783 0.00566531 0.0160587 0.0216163
internal_weight=788.349 728.39 59.959 32.6549 503.899 130.985 25.2752 16.7683 8.50693 6.07408 13.9969 10.4907 77.7966 26.6459 23.107 224.491 19.1521 205.339 16.4609 12.628 372.914 154.983 134.402 128.901 217.931 193.081 118.32 113.412 187.563 152.538
internal_count=5634 4275 1359 523 2554 690 324 237 87 68 213 173 455 201 165 1721 186 1535 168 141 1864 764 640 614 1100 963 557 534 938 749
cat_boundaries=0 1 2 3 4 5
cat_threshold=4 1 4 2 1
is_linear=0
shrinkage=0.1


Tree=27
num_leaves=31
num_cat=9
split_feature=11 13 6 9 3 3 14 3 0 3 3 14 6 14 8 7 14 9 3 3 3 14 14 3 14 14 10 12 3 14
split_gain=9.59466 3.84995 3.00656 6.24134 11.0828 2.51231 3.65135 2.39619 3.31852 4.18249 3.78908 3.23929 2.83867 3.19817 3.06046 3.48267 8.98623 2.85661 2.76359 2.73088 2.41993 2.6118 2.41438 3.15038 3.32215 5.87604 2.31418 2.22796 5.05906 3.20529
threshold=0 1 2 3 70.500000000000014 70.500000000000014 4443.1000000000013 49.500000000000007 1.0000000180025095e-35 37.500000000000007 30.500000000000004 4096.9750000000013 4 33.650000000000013 5 6 1997.0000000000002 7 46.500000000000007 43.500000000000007 32.500000000000007 1997.0000000000002 44.32500000000001 12.500000000000002 832.20000000000016 992.92500000000007 8 1.0000000180025095e-35 32.500000000000007 2938.7250000000008
decision_type=1 1 1 1 2 2 2 2 2 2 2 2 1 2 1 1 2 1 2 2 2 2 2 2 2 2 1 2 2 2
left_child=2 -2 3 4 -1 6 -4 8 12 10 -10 -9 18 -14 15 26 -17 -18 22 -11 21 -16 -3 -24 -25 -26 -15 28 -27 -30
right_child=1 7 5 -5 -6 -7 -8 11 9 19 -12 -13 13 14 20 16 17 -19 -20 -21 -22 -23 23 24 25 27 -28 -29 29 -31
leaf_value=-0.0079918935009590571 0.0099014088945108911 -0.062200628615745837 -0.069184832158798004 -0.041166878563209157 0.33929084378237984 -0.095133103160929766 7.393360885481853e-05 -0.07109107162570287 0.02300903167045322 0.15511013519732103 -0.06921083561402866 -0.011480658168361092 0.01319686664647448 -0.086179403383523354 -0.033550700082315345 0.18859741118626788 -0.090918481460911207 0.049910890663947188 0.078073940848366705 0.036749995248400232 -0.082775851762865088 0.055180691547881688 0.017533958877778651 -0.087407564677164817 0.10968643311259417 -0.096744983320259201 0.010687402951053741 -0.0023102966852593552 0.074895090562263691 -0.067236413806832526
leaf_weight=2.9423202387988567 349.58185740560293 5.813118338584899 17.664079666137699 11.402759354561566 1.3362664878368375 10.905797952786086 13.37651529535651 11.482893716543911 31.164617117494345 3.5559713691472998 5.1985835544764987 44.226533997803926 26.717122547328472 4.3280047886073589 58.20034196600318 3.2164199948310852 2.8623940460383892 2.8991991989314556 4.799361575394868 4.3145897947251797 9.4731578491628152 3.5178190767765036 76.802126705646515 5.3579187989234915 4.1478148177266112 8.6560620404779893 5.7335690334439278 46.082068033516407 4.0490067377686492 2.6090815365314484
leaf_count=45 1762 24 603 178 20 322 191 155 159 18 29 318 122 38 555 22 21 24 27 26 128 20 366 36 27 60 40 249 34 15
internal_value=-0.00060694 0.00251558 -0.0398792 -0.00252196 0.10047 -0.0538449 -0.0393387 -0.00450951 -0.00129271 0.0241308 0.00982502 -0.0237676 -0.00537816 -0.0171936 -0.0261921 0.00942025 0.0546965 -0.020054 0.00334986 0.0902259 -0.0357164 -0.0284932 0.00101379 0.00350169 -0.0116983 -0.00550942 -0.03098 -0.0132918 -0.0463366 0.0191985
internal_weight=782.417 724.79 57.6277 15.6813 4.27859 41.9464 31.0406 375.208 319.498 44.2338 36.3632 55.7094 275.265 116.948 90.2309 19.0396 8.97801 5.76159 158.317 7.87056 71.1913 61.7182 153.517 147.704 70.902 65.544 10.0616 61.3962 15.3142 6.65809
internal_count=5634 4275 1359 243 65 1116 794 2513 2040 232 188 473 1808 970 848 145 67 45 838 44 703 575 811 787 421 385 78 358 109 49
cat_boundaries=0 1 2 3 4 5 6 7 8 9
cat_threshold=4 4 1 1 1 4 1 1 1
is_linear=0
shrinkage=0.1


Tree=28
num_leaves=31
num_cat=8
split_feature=11 12 3 6 9 3 3 14 5 14 6 14 14 14 8 3 3 3 3 15 14 0 14 10 4 14 14 14 14 3
split_gain=8.15181 3.25952 2.98178 2.63818 4.70133 6.11131 2.43866 3.29679 2.20335 4.05521 2.8111 5.46811 2.463 2.17996 3.18347 3.49501 2.17292 2.30893 2.20443 4.35968 3.02256 2.04286 2.74805 4.86135 2.59222 2.0344 5.55635 2.00293 4.49484 3.98196
threshold=0 1.0000000180025095e-35 7.5000000000000009 1 2 70.500000000000014 70.500000000000014 4443.1000000000013 3 3315.1250000000005 4 2318.4500000000003 2749.8500000000004 436.75000000000006 5 3.5000000000000004 30.500000000000004 38.500000000000007 14.500000000000002 1.0000000180025095e-35 952.87500000000011 1.0000000180025095e-35 4730.3250000000007 6 7 1217.7500000000002 1043.575 6292.9500000000007 6000.7750000000005 56.500000000000007
decision_type=1 2 2 1 1 2 2 2 1 2 1 2 2 2 1 2 2 2 2 2 2 2 2 1 1 2 2 2 2 2
left_child=3 21 13 4 5 -1 7 -5 27 10 11 16 -13 14 -3 -16 18 -18 19 -10 -20 -2 23 -23 -25 26 -12 28 29 -4
right_child=1 2 8 6 -6 -7 -8 -9 9 -11 25 12 -14 -15 15 -17 17 -19 20 -21 -22 22 -24 24 -26 -27 -28 -29 -30 -31
leaf_value=-0.0072428240645126436 -0.0112882139140623 0.058993756627983333 0.010215487936539921 -0.066689662483436274 -0.038372175864636447 0.22893106760940621 -0.093912036791021697 6.6533841186359305e-05 -0.10842652533933579 -0.084878177797026388 -0.026885084295830426 0.12766694999903691 0.021609195353167743 0.052959937625985366 0.019016960324447975 -0.021456993423710023 -0.12403137667312253 -0.0076538931802863129 0.072429617088250353 0.010047455948200154 -0.0091872989297348516 0.08492084949985973 -0.052821198739851138 -0.034760785125757955 0.043626448526982831 -0.058326575335107524 0.14458849812508898 -0.020059318030118026 0.095410106528621058 -0.050970808266157575
leaf_weight=2.9230255261063576 199.52026549726725 14.287680648267269 214.59334582462907 16.550809148699049 11.029995683580635 1.7525685951113699 9.9898514896631223 13.37729777023196 4.3389103934168789 6.9910277463495722 16.474845767021183 4.9300045818090421 3.9393339082598686 16.649849429726601 85.510950185358524 28.428071040660143 2.9536753334105006 4.0319559685885906 8.3055002242326754 10.931368261575699 10.001570038497446 9.740268848836422 4.9345053993165484 10.473573256283998 7.0641497746109971 13.392843838781117 2.1345475763082495 25.55657122656703 5.9259728826582423 11.190936747938393
leaf_count=45 1407 71 1002 603 178 20 322 191 27 79 166 30 27 84 430 141 22 28 45 54 71 47 31 59 41 139 17 152 34 71
internal_value=-0.000582278 0.00225844 0.00687545 -0.0374705 -0.00275052 0.081283 -0.051131 -0.0368509 0.00182835 -0.0117892 -0.00551465 0.00943456 0.0805612 0.0189184 0.0144982 0.00891861 -0.0061177 -0.0568608 0.00443919 -0.0236158 0.0278404 -0.00751559 0.0158516 0.0282743 -0.00318661 -0.028606 -0.0072166 0.00650886 0.00943921 0.00718281
internal_weight=777.925 722.302 490.569 55.6235 15.7056 4.67559 39.918 29.9281 345.692 88.4256 81.4346 49.4323 8.86934 144.877 128.227 113.939 40.563 6.98563 33.5773 15.2703 18.3071 231.733 32.2125 27.278 17.5377 32.0022 18.6094 257.267 231.71 225.784
internal_count=5634 4275 2690 1359 243 65 1116 794 1964 705 626 304 57 726 642 571 247 50 197 81 116 1585 178 147 100 322 183 1259 1107 1073
cat_boundaries=0 1 2 3 4 5 6 7 8
cat_threshold=4 1 1 2 1 4 4 1
is_linear=0
shrinkage=0.1


Tree=29
num_leaves=31
num_cat=7
split_feature=11 13 14 14 14 13 14 4 3 14 3 14 3 3 3 1 14 3 3 0 3 3 6 14 8 3 3 3 7 14
split_gain=6.89875 2.94448 2.36812 2.15804 4.54948 2.21932 5.16502 5.2897 1.9982 1.91792 1.83639 3.54503 2.74963 3.75871 3.62579 3.67921 3.01496 2.11919 2.45952 2.4059 3.16708 3.1151 2.06516 2.57753 2.49673 3.11939 6.92718 3.24608 7.33804 3.65511
threshold=0 1 2440.2000000000003 7786.2250000000013 7675.9750000000013 2 5611.2000000000007 3 71.500000000000014 4443.1000000000013 54.500000000000007 5158.9500000000016 65.500000000000014 59.500000000000007 70.500000000000014 1.0000000180025095e-35 6992.7750000000005 52.500000000000007 49.500000000000007 1.0000000180025095e-35 37.500000000000007 30.500000000000004 4 33.650000000000013 5 42.500000000000007 36.500000000000007 30.500000000000004 6 549.50000000000011
decision_type=1 1 2 2 2 1 2 1 2 2 2 2 2 2 2 2 2 2 2 2 2 2 1 2 1 2 2 2 1 2
left_child=2 -2 -1 4 5 6 7 -4 9 -7 17 -12 13 -13 15 -14 -17 18 19 22 21 -21 -3 -24 25 26 27 28 -25 -30
right_child=1 10 3 -5 -6 8 -8 -9 -10 -11 11 12 14 -15 -16 16 -18 -19 -20 20 -22 -23 23 24 -26 -27 -28 -29 29 -31
leaf_value=-0.069081345187223961 0.008487370390903708 0.002464741700973291 -0.012408464467937048 -0.10439456744600302 0.13101857559554314 -0.08397104116172667 -0.024911819628933966 0.27979944348322444 -0.10449555673942834 -0.014917191343280524 -0.075294615740918724 0.018769400792911024 0.15250856617013195 -0.080021998167343067 -0.062060088757604194 0.075595697566259834 -0.058035690865684879 0.057536021249268016 -0.053169792720032943 0.019335700597405848 0.076471083385201435 -0.065076834783325918 0.011965891728373515 0.13457063766964916 -0.03231623977993011 -0.086925072870944933 0.17276519834717294 -0.091018373666205687 0.036155813444870184 -0.11546367496615398
leaf_weight=14.854876387864349 348.18272674456239 157.87673700600863 1.0348486788570881 2.9482139199972144 2.0038415044546118 5.1330667920410695 3.4207525383681059 1.5435490943491459 4.2266729176044455 18.58412691950798 10.249410632997749 7.0394068062305477 2.8880559206008893 8.5034599490463716 3.4044943489134303 3.9197307266294956 2.965838860720396 5.900221597403287 9.4633892662823182 31.139449216425419 8.1523974202573282 5.0857875905930987 26.803495332598686 3.7825846299529076 68.793671764433384 2.8907330855727187 2.6766466461122027 3.2166984006762496 3.1121957898140007 3.2507231794297695
leaf_count=579 1762 838 21 90 19 169 44 29 136 272 146 39 22 61 29 29 20 46 81 159 44 29 122 25 703 28 22 28 17 25
internal_value=-0.00055889 0.00202347 -0.0351168 -0.022145 -0.0153992 -0.0240431 0.0208652 0.162521 -0.0303058 -0.0298624 -0.00415767 -0.0248061 -0.0067887 -0.0352791 0.0268142 0.0577722 0.0180363 -0.00186018 -0.00293437 -0.00143366 0.0201579 0.00748473 -0.00495117 -0.0151741 -0.0234666 0.00869453 0.0259284 -0.00348523 0.0242677 -0.0413044
internal_weight=773.048 719.298 53.7499 38.8951 35.9469 33.943 5.99915 2.5784 27.9439 23.7172 371.115 38.9704 28.721 15.5429 13.1781 9.77363 6.88557 332.145 326.245 316.781 44.3776 36.2252 272.403 114.527 87.7233 18.9296 16.0388 13.3622 10.1455 6.36292
internal_count=5634 4275 1359 780 690 671 94 50 577 441 2513 346 200 100 100 71 49 2167 2121 2040 232 188 1808 970 848 145 117 95 67 42
cat_boundaries=0 1 2 3 4 5 6 7
cat_threshold=4 4 4 1 1 4 4
is_linear=0
shrinkage=0.1


Tree=30
num_leaves=31
num_cat=5
split_feature=11 16 14 14 2 12 14 3 4 14 14 1 3 3 3 3 3 14 14 14 9 15 14 1 14 3 14 14 8 9
split_gain=5.8576 2.55276 2.44109 2.58938 3.46365 2.43579 2.28605 3.25069 2.2221 2.05125 4.55489 1.86989 2.75961 3.47912 2.75337 1.83138 1.82152 3.14266 2.31424 4.21868 5.80612 1.72511 1.66389 4.63747 1.56643 3.41712 2.83346 2.76877 2.66193 2.01802
